{"learner":{"attributes":{"scikit_learn":"{\"_estimator_type\": \"regressor\"}"},"feature_names":["PCP","TMAX","TMIN","rh","solar","wind ","P1","P2","P3"],"feature_types":["float","float","float","float","float","float","float","float","float"],"gradient_booster":{"model":{"cats":{"enc":[],"feature_segments":[],"sorted_idx":[]},"gbtree_model_param":{"num_parallel_tree":"1","num_trees":"300"},"iteration_indptr":[0,1,2,3,4,5,6,7,8,9,10,11,12,13,14,15,16,17,18,19,20,21,22,23,24,25,26,27,28,29,30,31,32,33,34,35,36,37,38,39,40,41,42,43,44,45,46,47,48,49,50,51,52,53,54,55,56,57,58,59,60,61,62,63,64,65,66,67,68,69,70,71,72,73,74,75,76,77,78,79,80,81,82,83,84,85,86,87,88,89,90,91,92,93,94,95,96,97,98,99,100,101,102,103,104,105,106,107,108,109,110,111,112,113,114,115,116,117,118,119,120,121,122,123,124,125,126,127,128,129,130,131,132,133,134,135,136,137,138,139,140,141,142,143,144,145,146,147,148,149,150,151,152,153,154,155,156,157,158,159,160,161,162,163,164,165,166,167,168,169,170,171,172,173,174,175,176,177,178,179,180,181,182,183,184,185,186,187,188,189,190,191,192,193,194,195,196,197,198,199,200,201,202,203,204,205,206,207,208,209,210,211,212,213,214,215,216,217,218,219,220,221,222,223,224,225,226,227,228,229,230,231,232,233,234,235,236,237,238,239,240,241,242,243,244,245,246,247,248,249,250,251,252,253,254,255,256,257,258,259,260,261,262,263,264,265,266,267,268,269,270,271,272,273,274,275,276,277,278,279,280,281,282,283,284,285,286,287,288,289,290,291,292,293,294,295,296,297,298,299,300],"tree_info":[0,0,0,0,0,0,0,0,0,0,0,0,0,0,0,0,0,0,0,0,0,0,0,0,0,0,0,0,0,0,0,0,0,0,0,0,0,0,0,0,0,0,0,0,0,0,0,0,0,0,0,0,0,0,0,0,0,0,0,0,0,0,0,0,0,0,0,0,0,0,0,0,0,0,0,0,0,0,0,0,0,0,0,0,0,0,0,0,0,0,0,0,0,0,0,0,0,0,0,0,0,0,0,0,0,0,0,0,0,0,0,0,0,0,0,0,0,0,0,0,0,0,0,0,0,0,0,0,0,0,0,0,0,0,0,0,0,0,0,0,0,0,0,0,0,0,0,0,0,0,0,0,0,0,0,0,0,0,0,0,0,0,0,0,0,0,0,0,0,0,0,0,0,0,0,0,0,0,0,0,0,0,0,0,0,0,0,0,0,0,0,0,0,0,0,0,0,0,0,0,0,0,0,0,0,0,0,0,0,0,0,0,0,0,0,0,0,0,0,0,0,0,0,0,0,0,0,0,0,0,0,0,0,0,0,0,0,0,0,0,0,0,0,0,0,0,0,0,0,0,0,0,0,0,0,0,0,0,0,0,0,0,0,0,0,0,0,0,0,0,0,0,0,0,0,0,0,0,0,0,0,0,0,0,0,0,0,0,0,0,0,0,0,0,0,0,0,0,0,0],"trees":[{"base_weights":[-4.1736714E-3,-8.347114E-1,8.5326016E-1,-9.517675E-1,-3.5036185E-1,1.1593037E0,4.9679264E-1,-1.0212257E0,-7.1235913E-1,-4.2735937E-1,2.6293167E-1,4.582331E-1,1.189661E0,1.3092393E-1,6.853167E-1,-1.0485523E-2,-8.847799E-3,-7.2402585E-1,7.8934915E-2,-4.5365232E-1,1.7198889E-1,1.0408228E-1,6.817452E-1,1.6739166E-1,9.6212614E-1,1.0442339E0,1.2774311E0,-4.8939916E-3,6.880805E-1,8.3795047E-1,3.0558956E-1,-8.696298E-3,-6.602221E-3,-8.0409525E-5,1.1904815E-3,-5.3958637E-3,-2.6413437E-3,4.1795685E-3,-1.2147559E-3,-9.326637E-4,3.589522E-3,1.3415235E-3,7.7638575E-3,7.1334845E-4,2.8118053E-3,2.1104838E-3,1.04252035E-2,7.316501E-3,1.1412732E-2,1.2801826E-2,1.3567262E-3,2.1154282E-3,-2.4291754E-3,3.9021096E-3,9.165303E-3,4.120136E-3,9.363085E-3,1.0808682E-3,4.3617613E-3],"categories":[],"categories_nodes":[],"categories_segments":[],"categories_sizes":[],"default_left":[0,0,0,0,0,0,0,0,0,0,0,0,0,0,0,0,0,0,0,0,0,0,0,0,0,0,0,0,0,0,0,0,0,0,0,0,0,0,0,0,0,0,0,0,0,0,0,0,0,0,0,0,0,0,0,0,0,0,0],"id":0,"left_children":[1,3,5,7,9,11,13,15,17,19,21,23,25,27,29,-1,-1,31,33,35,37,39,41,43,45,47,49,51,53,55,57,-1,-1,-1,-1,-1,-1,-1,-1,-1,-1,-1,-1,-1,-1,-1,-1,-1,-1,-1,-1,-1,-1,-1,-1,-1,-1,-1,-1],"loss_changes":[4.4650605E3,1.7877954E2,3.3351147E2,3.879248E1,3.0233734E1,3.235327E1,9.8379944E1,2.5283203E0,5.824707E0,9.243118E0,4.423193E0,1.0366367E1,1.331665E1,3.746704E1,5.337677E1,0E0,0E0,2.4109802E0,6.1242506E-2,7.96891E0,2.2324433E0,3.1615553E0,3.728428E-1,4.6561933E-1,4.0485573E-1,1.4565369E1,2.0214844E0,2.0969934E1,4.6818085E0,2.6047394E1,6.9055977E0,0E0,0E0,0E0,0E0,0E0,0E0,0E0,0E0,0E0,0E0,0E0,0E0,0E0,0E0,0E0,0E0,0E0,0E0,0E0,0E0,0E0,0E0,0E0,0E0,0E0,0E0,0E0,0E0],"parents":[2147483647,0,0,1,1,2,2,3,3,4,4,5,5,6,6,7,7,8,8,9,9,10,10,11,11,12,12,13,13,14,14,17,17,18,18,19,19,20,20,21,21,22,22,23,23,24,24,25,25,26,26,27,27,28,28,29,29,30,30],"right_children":[2,4,6,8,10,12,14,16,18,20,22,24,26,28,30,-1,-1,32,34,36,38,40,42,44,46,48,50,52,54,56,58,-1,-1,-1,-1,-1,-1,-1,-1,-1,-1,-1,-1,-1,-1,-1,-1,-1,-1,-1,-1,-1,-1,-1,-1,-1,-1,-1,-1],"split_conditions":[1.94E1,1.61E1,3.4943602E0,2.7662E1,4.6E0,2.11E1,2.22E1,2.518E1,3.8937E1,1.26E1,2.4E1,7E0,2E-1,1.6E0,5.101443E0,-1.0485523E-2,-8.847799E-3,1.28E1,2E-1,3.2986E1,4.0801606E0,1.83E1,1.9871716E1,2.1497744E1,2E-1,2.28E1,2.9368513E1,4.4298196E0,1.13E1,2.3308142E1,2.819975E1,-8.696298E-3,-6.602221E-3,-8.0409525E-5,1.1904815E-3,-5.3958637E-3,-2.6413437E-3,4.1795685E-3,-1.2147559E-3,-9.326637E-4,3.589522E-3,1.3415235E-3,7.7638575E-3,7.1334845E-4,2.8118053E-3,2.1104838E-3,1.04252035E-2,7.316501E-3,1.1412732E-2,1.2801826E-2,1.3567262E-3,2.1154282E-3,-2.4291754E-3,3.9021096E-3,9.165303E-3,4.120136E-3,9.363085E-3,1.0808682E-3,4.3617613E-3],"split_indices":[2,2,5,1,0,2,2,1,1,7,0,0,0,0,5,0,0,2,0,1,5,2,4,4,6,2,4,5,0,4,4,0,0,0,0,0,0,0,0,0,0,0,0,0,0,0,0,0,0,0,0,0,0,0,0,0,0,0,0],"split_type":[0,0,0,0,0,0,0,0,0,0,0,0,0,0,0,0,0,0,0,0,0,0,0,0,0,0,0,0,0,0,0,0,0,0,0,0,0,0,0,0,0,0,0,0,0,0,0,0,0,0,0,0,0,0,0,0,0,0,0],"sum_hessian":[6.26E3,3.18E3,3.08E3,2.557E3,6.23E2,1.651E3,1.429E3,1.969E3,5.88E2,5.55E2,6.8E1,7.2E1,1.579E3,4.89E2,9.4E2,1.612E3,3.57E2,5.8E2,8E0,5.33E2,2.2E1,5.4E1,1.4E1,5E1,2.2E1,6.19E2,9.6E2,3.97E2,9.2E1,6.66E2,2.74E2,1.57E2,4.23E2,3E0,5E0,3.6E2,1.73E2,1.1E1,1.1E1,3.2E1,2.2E1,4E0,1E1,3.2E1,1.8E1,4E0,1.8E1,1.57E2,4.62E2,9.57E2,3E0,2.08E2,1.89E2,4.6E1,4.6E1,1.3E2,5.36E2,1.13E2,1.61E2],"tree_param":{"num_deleted":"0","num_feature":"9","num_nodes":"59","size_leaf_vector":"1"}},{"base_weights":[4.1033505E-3,-8.2657325E-1,8.345398E-1,-9.832787E-1,-4.9070716E-1,1.1010344E0,4.312815E-1,-1.0319778E0,-8.2815236E-1,-6.10849E-1,-2.0988843E-1,6.59371E-1,1.1710854E0,1.7776385E-1,6.8687767E-1,-1.0345714E-2,-9.281734E-4,-8.533705E-3,-6.0907835E-1,-6.491757E-1,-2.113078E-1,-3.2014284E-1,3.6388266E-1,3.599921E-1,1.0558591E0,9.061122E-1,1.2241048E0,4.941058E-2,7.951503E-1,8.3232355E-1,3.8758677E-1,-6.352015E-3,-0E0,-8.086374E-3,-5.7525923E-3,-3.0248265E-3,2.9009264E-3,-3.6043867E-3,1.1067488E-4,3.9773728E-5,4.8077703E-3,1.8140314E-3,6.7686397E-3,1.0881753E-2,2.524834E-3,4.8286254E-3,1.0129725E-2,1.1172086E-2,1.28190685E-2,-2.389589E-3,1.6392486E-3,8.78305E-3,8.092916E-4,4.1794046E-3,8.845104E-3,-1.0641434E-3,4.2820335E-3],"categories":[],"categories_nodes":[],"categories_segments":[],"categories_sizes":[],"default_left":[0,0,0,0,0,0,0,0,0,0,0,0,0,0,0,0,0,0,0,0,0,0,0,0,0,0,0,0,0,0,0,0,0,0,0,0,0,0,0,0,0,0,0,0,0,0,0,0,0,0,0,0,0,0,0,0,0],"id":1,"left_children":[1,3,5,7,9,11,13,15,17,19,21,23,25,27,29,-1,-1,-1,31,33,35,37,39,41,43,45,47,49,51,53,55,-1,-1,-1,-1,-1,-1,-1,-1,-1,-1,-1,-1,-1,-1,-1,-1,-1,-1,-1,-1,-1,-1,-1,-1,-1,-1],"loss_changes":[4.31485E3,1.6202075E2,3.336267E2,1.1609131E1,3.3183655E1,5.4121338E1,8.04951E1,3.2996826E0,2.050476E-1,9.962555E0,2.0125683E1,2.9888252E1,1.6943604E1,5.0118008E1,2.5341095E1,0E0,0E0,0E0,1.1623878E0,5.043976E0,3.5943217E0,3.5516376E0,2.1296506E0,8.411207E0,1.425911E0,1.0475845E1,8.294678E-1,1.7756283E1,6.022278E0,6.9742737E0,4.533781E0,0E0,0E0,0E0,0E0,0E0,0E0,0E0,0E0,0E0,0E0,0E0,0E0,0E0,0E0,0E0,0E0,0E0,0E0,0E0,0E0,0E0,0E0,0E0,0E0,0E0,0E0],"parents":[2147483647,0,0,1,1,2,2,3,3,4,4,5,5,6,6,7,7,8,8,9,9,10,10,11,11,12,12,13,13,14,14,18,18,19,19,20,20,21,21,22,22,23,23,24,24,25,25,26,26,27,27,28,28,29,29,30,30],"right_children":[2,4,6,8,10,12,14,16,18,20,22,24,26,28,30,-1,-1,-1,32,34,36,38,40,42,44,46,48,50,52,54,56,-1,-1,-1,-1,-1,-1,-1,-1,-1,-1,-1,-1,-1,-1,-1,-1,-1,-1,-1,-1,-1,-1,-1,-1,-1,-1],"split_conditions":[1.94E1,2.8469E1,3.755909E0,2.518E1,1.78E1,2.17E1,2.28E1,1.89E1,1.67E1,6.8E0,2.6E0,3.6E0,3.9362496E-1,3.3E0,5.101443E0,-1.0345714E-2,-9.281734E-4,-8.533705E-3,1.8E0,1.39E1,3.65E1,3.4106243E-1,2.0384216E1,4E-1,3.5626152E0,2.4210903E1,3E-1,2.06E1,5.5748825E0,2.4210903E1,3.009E1,-6.352015E-3,-0E0,-8.086374E-3,-5.7525923E-3,-3.0248265E-3,2.9009264E-3,-3.6043867E-3,1.1067488E-4,3.9773728E-5,4.8077703E-3,1.8140314E-3,6.7686397E-3,1.0881753E-2,2.524834E-3,4.8286254E-3,1.0129725E-2,1.1172086E-2,1.28190685E-2,-2.389589E-3,1.6392486E-3,8.78305E-3,8.092916E-4,4.1794046E-3,8.845104E-3,-1.0641434E-3,4.2820335E-3],"split_indices":[2,1,5,1,2,2,2,2,2,0,0,0,3,0,5,0,0,0,0,2,0,3,4,7,5,4,0,2,5,4,1,0,0,0,0,0,0,0,0,0,0,0,0,0,0,0,0,0,0,0,0,0,0,0,0,0,0],"split_type":[0,0,0,0,0,0,0,0,0,0,0,0,0,0,0,0,0,0,0,0,0,0,0,0,0,0,0,0,0,0,0,0,0,0,0,0,0,0,0,0,0,0,0,0,0,0,0,0,0,0,0,0,0,0,0,0,0],"sum_hessian":[6.245E3,3.122E3,3.123E3,2.122E3,1E3,1.875E3,1.248E3,1.593E3,5.29E2,6.96E2,3.04E2,2.64E2,1.611E3,6.31E2,6.17E2,1.588E3,5E0,4.61E2,6.8E1,6.32E2,6.4E1,2.57E2,4.7E1,1.56E2,1.08E2,2.84E2,1.327E3,5.27E2,1.04E2,4.09E2,2.08E2,6.5E1,3E0,1.84E2,4.48E2,5.6E1,8E0,2.29E2,2.8E1,1.3E1,3.4E1,1.05E2,5.1E1,1.02E2,6E0,6.3E1,2.21E2,5.02E2,8.25E2,1.48E2,3.79E2,9.2E1,1.2E1,5.1E1,3.58E2,1.5E1,1.93E2],"tree_param":{"num_deleted":"0","num_feature":"9","num_nodes":"57","size_leaf_vector":"1"}},{"base_weights":[1.8010939E-2,-8.2759744E-1,8.490802E-1,-9.704402E-1,-4.9008998E-1,1.153834E0,5.162207E-1,-1.0225819E0,-8.1879026E-1,-6.0956424E-1,-2.3201485E-1,4.618687E-1,1.1795762E0,2.4893045E-1,7.693232E-1,-1.02449935E-2,-1.0566408E-3,1.431847E-3,-8.2521707E-1,-6.293935E-1,1.890792E-2,-3.0705848E-1,2.4063405E-1,1.3120385E-1,8.44488E-3,1.0575364E0,1.2498878E0,9.7872816E-2,8.461641E-1,8.9294624E-1,4.0924904E-1,-9.101633E-3,-7.247658E-3,-7.2299885E-3,-5.2033616E-3,-1.8697521E-3,2.7272257E-3,-3.4714271E-3,7.2783773E-4,8.615834E-4,5.681691E-3,2.8578052E-5,2.2270132E-3,7.628357E-3,1.143844E-2,1.25256665E-2,1.3240485E-3,3.0547925E-3,-1.173357E-3,8.745393E-3,1.4948926E-3,-1.408234E-3,9.016573E-3,1.2087489E-3,5.089609E-3],"categories":[],"categories_nodes":[],"categories_segments":[],"categories_sizes":[],"default_left":[0,0,0,0,0,0,0,0,0,0,0,0,0,0,0,0,0,0,0,0,0,0,0,0,0,0,0,0,0,0,0,0,0,0,0,0,0,0,0,0,0,0,0,0,0,0,0,0,0,0,0,0,0,0,0],"id":2,"left_children":[1,3,5,7,9,11,13,15,17,19,21,23,25,27,29,-1,-1,-1,31,33,35,37,39,41,-1,43,45,47,49,51,53,-1,-1,-1,-1,-1,-1,-1,-1,-1,-1,-1,-1,-1,-1,-1,-1,-1,-1,-1,-1,-1,-1,-1,-1],"loss_changes":[4.3753804E3,1.4625342E2,3.1537695E2,1.2733032E1,2.7822037E1,2.6235596E1,1.0109491E2,2.1395264E0,4.238617E0,7.984146E0,1.1087814E1,7.8251896E0,6.657959E0,6.643231E1,3.2451477E1,0E0,0E0,0E0,1.453186E0,4.2421875E0,1.5176842E0,4.158125E0,1.916038E0,4.674822E-1,0E0,1.091095E1,1.9361572E0,2.6915878E1,2.189392E0,5.8529663E0,5.581558E0,0E0,0E0,0E0,0E0,0E0,0E0,0E0,0E0,0E0,0E0,0E0,0E0,0E0,0E0,0E0,0E0,0E0,0E0,0E0,0E0,0E0,0E0,0E0,0E0],"parents":[2147483647,0,0,1,1,2,2,3,3,4,4,5,5,6,6,7,7,8,8,9,9,10,10,11,11,12,12,13,13,14,14,18,18,19,19,20,20,21,21,22,22,23,23,25,25,26,26,27,27,28,28,29,29,30,30],"right_children":[2,4,6,8,10,12,14,16,18,20,22,24,26,28,30,-1,-1,-1,32,34,36,38,40,42,-1,44,46,48,50,52,54,-1,-1,-1,-1,-1,-1,-1,-1,-1,-1,-1,-1,-1,-1,-1,-1,-1,-1,-1,-1,-1,-1,-1,-1],"split_conditions":[1.94E1,2.8619E1,3.3439622E0,2.518E1,1.78E1,2.11E1,2.28E1,1.89E1,2.2318048E0,2E1,3E0,1.1E0,2E-1,3.5E0,5.1315656E0,-1.02449935E-2,-1.0566408E-3,1.431847E-3,1.28E1,1.5E1,1.6E0,1.6E0,7E0,2.1497744E1,8.44488E-3,2.28E1,2.9326231E1,4.4587235E0,5.5748825E0,2.518E1,2.8274622E1,-9.101633E-3,-7.247658E-3,-7.2299885E-3,-5.2033616E-3,-1.8697521E-3,2.7272257E-3,-3.4714271E-3,7.2783773E-4,8.615834E-4,5.681691E-3,2.8578052E-5,2.2270132E-3,7.628357E-3,1.143844E-2,1.25256665E-2,1.3240485E-3,3.0547925E-3,-1.173357E-3,8.745393E-3,1.4948926E-3,-1.408234E-3,9.016573E-3,1.2087489E-3,5.089609E-3],"split_indices":[2,1,5,1,2,2,2,2,5,0,0,0,0,0,5,0,0,0,2,2,6,6,7,4,0,2,4,5,5,1,4,0,0,0,0,0,0,0,0,0,0,0,0,0,0,0,0,0,0,0,0,0,0,0,0],"split_type":[0,0,0,0,0,0,0,0,0,0,0,0,0,0,0,0,0,0,0,0,0,0,0,0,0,0,0,0,0,0,0,0,0,0,0,0,0,0,0,0,0,0,0,0,0,0,0,0,0,0,0,0,0,0,0],"sum_hessian":[6.216E3,3.081E3,3.135E3,2.158E3,9.23E2,1.63E3,1.505E3,1.584E3,5.74E2,6.26E2,2.97E2,6.2E1,1.568E3,7.37E2,7.68E2,1.58E3,4E0,3E0,5.71E2,6.07E2,1.9E1,2.58E2,3.9E1,3.7E1,2.5E1,6.03E2,9.65E2,5.93E2,1.44E2,5.66E2,2.02E2,2.87E2,2.84E2,3.11E2,2.96E2,1.1E1,8E0,2.34E2,2.4E1,3.1E1,8E0,1.8E1,1.9E1,1.48E2,4.55E2,9.62E2,3E0,3.01E2,2.92E2,1.37E2,7E0,4E0,5.62E2,5.5E1,1.47E2],"tree_param":{"num_deleted":"0","num_feature":"9","num_nodes":"55","size_leaf_vector":"1"}},{"base_weights":[-8.321265E-3,-8.030759E-1,8.286551E-1,-9.466262E-1,-4.1629633E-1,1.1216875E0,4.6938607E-1,-1.0178941E-2,-7.9827434E-1,-4.8295838E-1,1.930867E-1,4.7960186E-1,1.1498052E0,1.1974669E-1,6.490144E-1,-9.181255E-1,-7.1352214E-1,-6.083273E-1,-3.2657123E-1,-8.764373E-2,3.9020732E-1,1.0460314E-1,9.10211E-3,9.670314E-1,1.20597305E-2,7.635173E-3,6.4622176E-1,7.930618E-1,3.1261906E-1,-9.276516E-3,4.0019033E-5,-7.1935765E-3,6.8601413E-4,-8.223982E-3,-5.4649264E-3,-1.6560941E-3,-4.524853E-3,2.006208E-3,-2.0319014E-3,-7.8014267E-4,5.077593E-3,-4.913174E-5,1.6867872E-3,7.1000587E-3,1.0659853E-2,-9.1324147E-4,4.182209E-3,7.340101E-3,1.1976106E-3,4.205882E-3,8.750101E-3,8.6323445E-4,4.5081736E-3],"categories":[],"categories_nodes":[],"categories_segments":[],"categories_sizes":[],"default_left":[0,0,0,0,0,0,0,0,0,0,0,0,0,0,0,0,0,0,0,0,0,0,0,0,0,0,0,0,0,0,0,0,0,0,0,0,0,0,0,0,0,0,0,0,0,0,0,0,0,0,0,0,0],"id":3,"left_children":[1,3,5,7,9,11,13,-1,15,17,19,21,23,25,27,29,31,33,35,37,39,41,-1,43,-1,45,47,49,51,-1,-1,-1,-1,-1,-1,-1,-1,-1,-1,-1,-1,-1,-1,-1,-1,-1,-1,-1,-1,-1,-1,-1,-1],"loss_changes":[4.162763E3,1.7611987E2,3.1809424E2,2.0463867E1,3.6162003E1,2.7320312E1,8.607999E1,0E0,4.504608E0,1.4460831E1,5.181651E0,1.2179216E1,1.0387451E1,2.7887283E1,4.2697113E1,2.7988892E0,2.5071259E0,3.3608093E0,6.9408264E0,1.569703E0,3.2132168E0,3.5735178E-1,0E0,6.262451E0,0E0,1.6313648E1,3.3111153E0,1.7351776E1,8.539606E0,0E0,0E0,0E0,0E0,0E0,0E0,0E0,0E0,0E0,0E0,0E0,0E0,0E0,0E0,0E0,0E0,0E0,0E0,0E0,0E0,0E0,0E0,0E0,0E0],"parents":[2147483647,0,0,1,1,2,2,3,3,4,4,5,5,6,6,8,8,9,9,10,10,11,11,12,12,13,13,14,14,15,15,16,16,17,17,18,18,19,19,20,20,21,21,23,23,25,25,26,26,27,27,28,28],"right_children":[2,4,6,8,10,12,14,-1,16,18,20,22,24,26,28,30,32,34,36,38,40,42,-1,44,-1,46,48,50,52,-1,-1,-1,-1,-1,-1,-1,-1,-1,-1,-1,-1,-1,-1,-1,-1,-1,-1,-1,-1,-1,-1,-1,-1],"split_conditions":[2E1,1.5E1,3.4943602E0,2.5032E1,4.6E0,2.11E1,2.22E1,-1.0178941E-2,1.22E1,1.78E1,1.78E1,6E-1,4.7629896E-1,2.1E0,5.101443E0,5.05E1,3.8493E1,2.7577E1,4.2474256E0,3.4166503E0,2.0903852E1,2.0828022E1,9.10211E-3,2.4386679E1,1.20597305E-2,2E-1,4.911004E0,2.3308142E1,2.8274622E1,-9.276516E-3,4.0019033E-5,-7.1935765E-3,6.8601413E-4,-8.223982E-3,-5.4649264E-3,-1.6560941E-3,-4.524853E-3,2.006208E-3,-2.0319014E-3,-7.8014267E-4,5.077593E-3,-4.913174E-5,1.6867872E-3,7.1000587E-3,1.0659853E-2,-9.1324147E-4,4.182209E-3,7.340101E-3,1.1976106E-3,4.205882E-3,8.750101E-3,8.6323445E-4,4.5081736E-3],"split_indices":[2,2,5,1,0,2,2,0,2,2,2,0,3,7,5,0,1,1,5,5,4,4,0,4,0,0,5,4,4,0,0,0,0,0,0,0,0,0,0,0,0,0,0,0,0,0,0,0,0,0,0,0,0],"split_type":[0,0,0,0,0,0,0,0,0,0,0,0,0,0,0,0,0,0,0,0,0,0,0,0,0,0,0,0,0,0,0,0,0,0,0,0,0,0,0,0,0,0,0,0,0,0,0,0,0,0,0,0,0],"sum_hessian":[6.248E3,3.205E3,3.043E3,2.332E3,8.73E2,1.67E3,1.373E3,1.555E3,7.77E2,7.88E2,8.5E1,7.4E1,1.596E3,4.69E2,9.04E2,3.01E2,4.76E2,4.29E2,3.59E2,3.6E1,4.9E1,4.3E1,3.1E1,3.97E2,1.199E3,3.91E2,7.8E1,6.28E2,2.76E2,2.98E2,3E0,4.73E2,3E0,8.2E1,3.47E2,1.63E2,1.96E2,9E0,2.7E1,1E1,3.9E1,1.7E1,2.6E1,1.22E2,2.75E2,3.18E2,7.3E1,6.5E1,1.3E1,1.19E2,5.09E2,1.08E2,1.68E2],"tree_param":{"num_deleted":"0","num_feature":"9","num_nodes":"53","size_leaf_vector":"1"}},{"base_weights":[3.436816E-3,-7.9729813E-1,8.1340796E-1,-9.5609033E-1,-4.6373665E-1,1.1330248E0,4.8597273E-1,-1.0020084E0,-8.065931E-1,-5.9105223E-1,-1.7776723E-1,4.0049088E-1,1.1555897E0,2.4667197E-1,7.2820354E-1,-1.0033378E-2,-2.76829E-3,1.6971235E-3,-8.139647E-1,-6.3888466E-1,-2.0002282E-1,-2.953216E-1,3.4309414E-1,1.6627732E-1,6.64209E-1,1.0233554E0,1.2435808E-2,1.0115323E-1,8.43712E-1,8.6145294E-1,3.8585603E-1,-8.926723E-3,-7.172389E-3,-7.2374865E-3,-5.3720814E-3,-2.8275133E-3,2.388536E-3,-1.6784504E-3,-3.9857067E-3,1.7098568E-3,7.107522E-3,5.691177E-4,2.2608323E-3,1.2530825E-3,7.6778596E-3,6.9657722E-3,1.11866165E-2,3.083437E-3,-8.5353677E-4,8.9362245E-3,-3.363392E-4,-7.453565E-4,8.674504E-3,1.3736975E-3,5.0001824E-3],"categories":[],"categories_nodes":[],"categories_segments":[],"categories_sizes":[],"default_left":[0,0,0,0,0,0,0,0,0,0,0,0,0,0,0,0,0,0,0,0,0,0,0,0,0,0,0,0,0,0,0,0,0,0,0,0,0,0,0,0,0,0,0,0,0,0,0,0,0,0,0,0,0,0,0],"id":4,"left_children":[1,3,5,7,9,11,13,15,17,19,21,23,25,27,29,-1,-1,-1,31,33,35,37,39,41,43,45,-1,47,49,51,53,-1,-1,-1,-1,-1,-1,-1,-1,-1,-1,-1,-1,-1,-1,-1,-1,-1,-1,-1,-1,-1,-1,-1,-1],"loss_changes":[4.0834119E3,1.6533472E2,3.2465137E2,1.0468384E1,3.6934784E1,2.3647095E1,8.914154E1,4.1137695E-2,4.562317E0,1.2575623E1,2.040144E1,2.7618876E0,1.1212524E1,6.811438E1,3.3338806E1,0E0,0E0,0E0,6.421814E-1,3.3746033E0,3.428215E0,3.136238E0,3.2273617E0,1.4283198E-1,7.692652E-1,1.5854492E1,0E0,2.4923704E1,6.979767E0,3.4900513E0,5.975567E0,0E0,0E0,0E0,0E0,0E0,0E0,0E0,0E0,0E0,0E0,0E0,0E0,0E0,0E0,0E0,0E0,0E0,0E0,0E0,0E0,0E0,0E0,0E0,0E0],"parents":[2147483647,0,0,1,1,2,2,3,3,4,4,5,5,6,6,7,7,8,8,9,9,10,10,11,11,12,12,13,13,14,14,18,18,19,19,20,20,21,21,22,22,23,23,24,24,25,25,27,27,28,28,29,29,30,30],"right_children":[2,4,6,8,10,12,14,16,18,20,22,24,26,28,30,-1,-1,-1,32,34,36,38,40,42,44,46,-1,48,50,52,54,-1,-1,-1,-1,-1,-1,-1,-1,-1,-1,-1,-1,-1,-1,-1,-1,-1,-1,-1,-1,-1,-1,-1,-1],"split_conditions":[1.94E1,2.8327E1,3.3439622E0,2.5032E1,1.78E1,2.11E1,2.28E1,1.83E1,2.4229443E0,3.7E0,1.1E0,3.2E0,6E-1,3.3E0,5.101443E0,-1.0033378E-2,-2.76829E-3,1.6971235E-3,1.28E1,1.5E1,3.32E1,4.2339253E0,1.5E1,4.305216E-1,2.0755571E1,2.28E1,1.2435808E-2,4.3472185E0,5.7670374E0,2.4529E1,2.8274622E1,-8.926723E-3,-7.172389E-3,-7.2374865E-3,-5.3720814E-3,-2.8275133E-3,2.388536E-3,-1.6784504E-3,-3.9857067E-3,1.7098568E-3,7.107522E-3,5.691177E-4,2.2608323E-3,1.2530825E-3,7.6778596E-3,6.9657722E-3,1.11866165E-2,3.083437E-3,-8.5353677E-4,8.9362245E-3,-3.363392E-4,-7.453565E-4,8.674504E-3,1.3736975E-3,5.0001824E-3],"split_indices":[2,1,5,1,2,2,2,2,5,0,0,0,0,0,5,0,0,0,2,2,0,5,6,3,4,2,0,5,5,1,4,0,0,0,0,0,0,0,0,0,0,0,0,0,0,0,0,0,0,0,0,0,0,0,0],"split_type":[0,0,0,0,0,0,0,0,0,0,0,0,0,0,0,0,0,0,0,0,0,0,0,0,0,0,0,0,0,0,0,0,0,0,0,0,0,0,0,0,0,0,0,0,0,0,0,0,0,0,0,0,0,0,0],"sum_hessian":[6.286E3,3.161E3,3.125E3,2.135E3,1.026E3,1.575E3,1.55E3,1.611E3,5.24E2,7.06E2,3.2E2,5E1,1.525E3,7.85E2,7.65E2,1.606E3,5E0,3E0,5.21E2,6.26E2,8E1,2.63E2,5.7E1,3.1E1,1.9E1,6.35E2,8.9E2,6.36E2,1.49E2,5.45E2,2.2E2,2.64E2,2.57E2,3.24E2,3.02E2,6.9E1,1.1E1,1.24E2,1.39E2,4.4E1,1.3E1,1.5E1,1.6E1,5E0,1.4E1,1.53E2,4.82E2,3E2,3.36E2,1.41E2,8E0,3E0,5.42E2,7.3E1,1.47E2],"tree_param":{"num_deleted":"0","num_feature":"9","num_nodes":"55","size_leaf_vector":"1"}},{"base_weights":[-6.8534827E-3,-7.981737E-1,8.0473596E-1,-9.4488585E-1,-4.8033813E-1,1.1176934E0,4.8488688E-1,-9.9407697E-1,-8.0143344E-1,-5.9927016E-1,-2.0269077E-1,4.695402E-1,1.1400064E0,1.5387285E-1,6.6065586E-1,-9.960595E-3,-3.0753696E-1,2.1672968E-3,-8.08728E-1,-6.1497986E-1,1.7170028E-1,-3.1196457E-1,4.034714E-1,1.0308299E-1,8.0432415E-1,7.130313E-1,1.1634202E0,5.6344952E-2,9.661893E-3,7.937412E-1,3.1528914E-1,-3.7031495E-3,-3.22011E-4,-8.1368815E-3,4.260044E-4,-6.2974934E-3,-3.963555E-4,3.6717153E-3,-3.700846E-4,-1.8906553E-3,-4.5147957E-3,2.3095075E-3,7.223694E-3,2.93366E-4,1.5902775E-3,2.7591004E-3,9.237921E-3,2.1607985E-3,7.7986633E-3,1.1075871E-2,1.285533E-2,2.010185E-3,-2.52343E-3,4.0989425E-3,8.999957E-3,9.0257433E-4,4.7089215E-3],"categories":[],"categories_nodes":[],"categories_segments":[],"categories_sizes":[],"default_left":[0,0,0,0,0,0,0,0,0,0,0,0,0,0,0,0,0,0,0,0,0,0,0,0,0,0,0,0,0,0,0,0,0,0,0,0,0,0,0,0,0,0,0,0,0,0,0,0,0,0,0,0,0,0,0,0,0],"id":5,"left_children":[1,3,5,7,9,11,13,15,17,19,21,23,25,27,29,-1,31,-1,33,35,37,39,41,43,45,47,49,51,-1,53,55,-1,-1,-1,-1,-1,-1,-1,-1,-1,-1,-1,-1,-1,-1,-1,-1,-1,-1,-1,-1,-1,-1,-1,-1,-1,-1],"loss_changes":[4.0588752E3,1.4680518E2,3.0943933E2,1.1248535E1,3.3027084E1,1.9911987E1,8.970874E1,5.22583E-1,5.2729797E0,9.195892E0,2.1418818E1,6.978421E0,1.0830078E1,4.280237E1,4.515262E1,0E0,1.0754609E-1,0E0,2.7038574E0,5.748047E0,8.352965E-1,4.1214924E0,1.8213339E0,1.02237225E-1,5.625973E-1,2.1135025E0,2.3911133E0,2.2220715E1,0E0,2.7675507E1,9.885902E0,0E0,0E0,0E0,0E0,0E0,0E0,0E0,0E0,0E0,0E0,0E0,0E0,0E0,0E0,0E0,0E0,0E0,0E0,0E0,0E0,0E0,0E0,0E0,0E0,0E0,0E0],"parents":[2147483647,0,0,1,1,2,2,3,3,4,4,5,5,6,6,7,7,8,8,9,9,10,10,11,11,12,12,13,13,14,14,16,16,18,18,19,19,20,20,21,21,22,22,23,23,24,24,25,25,26,26,27,27,29,29,30,30],"right_children":[2,4,6,8,10,12,14,16,18,20,22,24,26,28,30,-1,32,-1,34,36,38,40,42,44,46,48,50,52,-1,54,56,-1,-1,-1,-1,-1,-1,-1,-1,-1,-1,-1,-1,-1,-1,-1,-1,-1,-1,-1,-1,-1,-1,-1,-1,-1,-1],"split_conditions":[1.94E1,2.8541E1,3.3439622E0,2.5032E1,1.78E1,2.11E1,2.22E1,2.7898987E1,2.3446598E0,3.22E1,2.6E0,1.1E0,3.2459545E-1,1.1E1,5.1315656E0,-9.960595E-3,1.39E1,2.1672968E-3,2.8540628E1,3.8493E1,3.4166503E0,4.4693003E0,2.25E1,4.305216E-1,2.7E0,2.17E1,1.2E1,4.933396E0,9.661893E-3,2.4025896E1,2.8274622E1,-3.7031495E-3,-3.22011E-4,-8.1368815E-3,4.260044E-4,-6.2974934E-3,-3.963555E-4,3.6717153E-3,-3.700846E-4,-1.8906553E-3,-4.5147957E-3,2.3095075E-3,7.223694E-3,2.93366E-4,1.5902775E-3,2.7591004E-3,9.237921E-3,2.1607985E-3,7.7986633E-3,1.1075871E-2,1.285533E-2,2.010185E-3,-2.52343E-3,4.0989425E-3,8.999957E-3,9.0257433E-4,4.7089215E-3],"split_indices":[2,1,5,1,2,2,2,4,5,0,0,0,3,0,5,0,2,0,4,1,5,5,0,3,6,2,0,5,0,4,4,0,0,0,0,0,0,0,0,0,0,0,0,0,0,0,0,0,0,0,0,0,0,0,0,0,0],"split_type":[0,0,0,0,0,0,0,0,0,0,0,0,0,0,0,0,0,0,0,0,0,0,0,0,0,0,0,0,0,0,0,0,0,0,0,0,0,0,0,0,0,0,0,0,0,0,0,0,0,0,0,0,0,0,0,0,0],"sum_hessian":[6.31E3,3.195E3,3.115E3,2.179E3,1.016E3,1.568E3,1.547E3,1.6E3,5.79E2,7.07E2,3.09E2,5.6E1,1.512E3,5.4E2,1.007E3,1.593E3,7E0,3E0,5.76E2,6.94E2,1.3E1,2.64E2,4.5E1,3E1,2.6E1,8.7E1,1.425E3,4.87E2,5.3E1,7.22E2,2.85E2,4E0,3E0,5.73E2,3E0,6.76E2,1.8E1,5E0,8E0,1.47E2,1.17E2,3.5E1,1E1,1.7E1,1.3E1,8E0,1.8E1,1.3E1,7.4E1,1.013E3,4.12E2,3.33E2,1.54E2,1.62E2,5.6E2,1.2E2,1.65E2],"tree_param":{"num_deleted":"0","num_feature":"9","num_nodes":"57","size_leaf_vector":"1"}},{"base_weights":[1.681242E-2,-7.7714515E-1,8.2590544E-1,-9.2000973E-1,-3.916596E-1,1.1096052E0,4.9657997E-1,-9.878011E-3,-7.7076507E-1,-4.6196088E-1,2.683822E-1,4.6456772E-1,1.1306278E0,2.614384E-1,7.208492E-1,-8.561406E-1,-6.703055E-1,-5.514427E-1,-2.3239653E-1,8.1047945E-2,7.595482E-1,1.01549E-1,7.962715E-1,9.9813634E-1,1.2127254E0,1.2831222E-1,8.35412E-1,8.5627705E-1,3.8175267E-1,-8.619136E-3,-1.2692731E-3,-6.8238545E-3,-1.5511718E-3,-7.214512E-3,-4.762472E-3,-2.8558676E-3,1.484554E-3,-5.949419E-4,4.145218E-3,1.866449E-3,8.257791E-3,-0E0,1.6130189E-3,1.8663149E-3,9.012587E-3,7.2449343E-3,1.0747098E-2,1.2159129E-2,5.8577105E-4,2.9996824E-3,-5.544073E-4,5.539155E-3,1.1026371E-2,7.591593E-3,1.0404999E-2,1.2804557E-3,5.009818E-3],"categories":[],"categories_nodes":[],"categories_segments":[],"categories_sizes":[],"default_left":[0,0,0,0,0,0,0,0,0,0,0,0,0,0,0,0,0,0,0,0,0,0,0,0,0,0,0,0,0,0,0,0,0,0,0,0,0,0,0,0,0,0,0,0,0,0,0,0,0,0,0,0,0,0,0,0,0],"id":6,"left_children":[1,3,5,7,9,11,13,-1,15,17,19,21,23,25,27,29,31,33,35,37,39,41,43,45,47,49,51,53,55,-1,-1,-1,-1,-1,-1,-1,-1,-1,-1,-1,-1,-1,-1,-1,-1,-1,-1,-1,-1,-1,-1,-1,-1,-1,-1,-1,-1],"loss_changes":[4.015554E3,1.7182031E2,2.863423E2,1.9267334E1,4.063759E1,1.9710938E1,7.500336E1,0E0,3.333374E0,1.532402E1,7.5211916E0,6.8512106E0,1.1162842E1,5.3772236E1,3.199524E1,9.6224976E-1,1.6523438E0,5.2957E0,4.84443E0,3.3457758E0,8.31604E-4,2.1147564E-1,1.0343323E0,9.3793335E0,3.0701904E0,1.8528309E1,6.7851562E0,5.191925E0,6.240944E0,0E0,0E0,0E0,0E0,0E0,0E0,0E0,0E0,0E0,0E0,0E0,0E0,0E0,0E0,0E0,0E0,0E0,0E0,0E0,0E0,0E0,0E0,0E0,0E0,0E0,0E0,0E0,0E0],"parents":[2147483647,0,0,1,1,2,2,3,3,4,4,5,5,6,6,8,8,9,9,10,10,11,11,12,12,13,13,14,14,15,15,16,16,17,17,18,18,19,19,20,20,21,21,22,22,23,23,24,24,25,25,26,26,27,27,28,28],"right_children":[2,4,6,8,10,12,14,-1,16,18,20,22,24,26,28,30,32,34,36,38,40,42,44,46,48,50,52,54,56,-1,-1,-1,-1,-1,-1,-1,-1,-1,-1,-1,-1,-1,-1,-1,-1,-1,-1,-1,-1,-1,-1,-1,-1,-1,-1,-1,-1],"split_conditions":[2E1,1.5E1,3.429723E0,2.518E1,7E0,2.11E1,2.28E1,-9.878011E-3,1.28E1,1.83E1,1.5E1,2E-1,3E-1,3.3E0,5.1315656E0,3.22E1,1.3E1,2.8768E1,1.8E0,2.8021349E1,3.0525918E0,2.0384216E1,2.0546045E1,2.28E1,2.9478027E1,4.4587235E0,4.2E0,4E-1,2.8274622E1,-8.619136E-3,-1.2692731E-3,-6.8238545E-3,-1.5511718E-3,-7.214512E-3,-4.762472E-3,-2.8558676E-3,1.484554E-3,-5.949419E-4,4.145218E-3,1.866449E-3,8.257791E-3,-0E0,1.6130189E-3,1.8663149E-3,9.012587E-3,7.2449343E-3,1.0747098E-2,1.2159129E-2,5.8577105E-4,2.9996824E-3,-5.544073E-4,5.539155E-3,1.1026371E-2,7.591593E-3,1.0404999E-2,1.2804557E-3,5.009818E-3],"split_indices":[2,2,5,1,0,2,2,0,2,2,6,0,0,0,5,0,6,1,6,4,5,4,4,2,4,5,6,8,4,0,0,0,0,0,0,0,0,0,0,0,0,0,0,0,0,0,0,0,0,0,0,0,0,0,0,0,0],"split_type":[0,0,0,0,0,0,0,0,0,0,0,0,0,0,0,0,0,0,0,0,0,0,0,0,0,0,0,0,0,0,0,0,0,0,0,0,0,0,0,0,0,0,0,0,0,0,0,0,0,0,0,0,0,0,0,0,0],"sum_hessian":[6.241E3,3.15E3,3.091E3,2.293E3,8.57E2,1.654E3,1.437E3,1.557E3,7.36E2,7.76E2,8.1E1,5.6E1,1.598E3,7.07E2,7.3E2,3.77E2,3.59E2,5.53E2,2.23E2,6.3E1,1.8E1,3E1,2.6E1,6.37E2,9.61E2,5.79E2,1.28E2,5.16E2,2.14E2,3.73E2,4E0,3.49E2,1E1,1.56E2,3.97E2,1.97E2,2.6E1,4.7E1,1.6E1,4E0,1.4E1,1.3E1,1.7E1,6E0,2E1,1.51E2,4.86E2,9.58E2,3E0,2.98E2,2.81E2,7E1,5.8E1,3.55E2,1.61E2,7.2E1,1.42E2],"tree_param":{"num_deleted":"0","num_feature":"9","num_nodes":"57","size_leaf_vector":"1"}},{"base_weights":[5.563835E-4,-7.8466994E-1,7.900351E-1,-9.0404207E-1,-4.2630062E-1,1.0854651E0,4.5396173E-1,-9.7038054E-1,-7.457771E-1,-5.2746373E-1,-2.0657642E-1,3.541376E-1,1.1142294E0,2.1333359E-1,6.923779E-1,-9.712696E-3,-1.6722993E-3,-8.3074147E-1,-6.537176E-1,-5.422525E-1,2.8087693E-1,-3.0534396E-1,1.14714734E-1,9.5986634E-2,6.506361E-3,8.763057E-1,1.1599927E0,1.01552956E-1,7.7094126E-1,8.189178E-1,3.7336656E-1,-8.356514E-3,-1.6497998E-3,-6.608718E-3,-5.42992E-4,-7.5766942E-3,-4.7331373E-3,3.79864E-3,1.4736006E-4,-4.1169105E-3,-1.3680072E-3,1.7742573E-4,4.5449096E-3,-2.4842712E-4,1.8036857E-3,5.7350975E-3,9.800351E-3,1.0994775E-2,1.2746203E-2,2.8114545E-3,-8.9859124E-4,8.383735E-3,4.7532222E-4,7.273032E-3,1.0400838E-2,1.1928772E-3,5.125855E-3],"categories":[],"categories_nodes":[],"categories_segments":[],"categories_sizes":[],"default_left":[0,0,0,0,0,0,0,0,0,0,0,0,0,0,0,0,0,0,0,0,0,0,0,0,0,0,0,0,0,0,0,0,0,0,0,0,0,0,0,0,0,0,0,0,0,0,0,0,0,0,0,0,0,0,0,0,0],"id":7,"left_children":[1,3,5,7,9,11,13,15,17,19,21,23,25,27,29,-1,-1,31,33,35,37,39,41,43,-1,45,47,49,51,53,55,-1,-1,-1,-1,-1,-1,-1,-1,-1,-1,-1,-1,-1,-1,-1,-1,-1,-1,-1,-1,-1,-1,-1,-1,-1,-1],"loss_changes":[3.9309102E3,1.3393542E2,3.113252E2,2.1197754E1,1.7253098E1,3.3199707E1,8.453693E1,2.593994E-1,2.8070068E0,7.3266754E0,8.508283E0,5.047514E0,1.2276489E1,4.614394E1,2.8425903E1,0E0,0E0,3.8087463E-1,1.3443298E0,6.088272E0,2.7503026E-1,3.284216E0,2.0541317E0,4.8657268E-1,0E0,5.860214E0,2.0299072E0,2.1768063E1,5.7610016E0,6.759613E0,7.448429E0,0E0,0E0,0E0,0E0,0E0,0E0,0E0,0E0,0E0,0E0,0E0,0E0,0E0,0E0,0E0,0E0,0E0,0E0,0E0,0E0,0E0,0E0,0E0,0E0,0E0,0E0],"parents":[2147483647,0,0,1,1,2,2,3,3,4,4,5,5,6,6,7,7,8,8,9,9,10,10,11,11,12,12,13,13,14,14,17,17,18,18,19,19,20,20,21,21,22,22,23,23,25,25,26,26,27,27,28,28,29,29,30,30],"right_children":[2,4,6,8,10,12,14,16,18,20,22,24,26,28,30,-1,-1,32,34,36,38,40,42,44,-1,46,48,50,52,54,56,-1,-1,-1,-1,-1,-1,-1,-1,-1,-1,-1,-1,-1,-1,-1,-1,-1,-1,-1,-1,-1,-1,-1,-1,-1,-1],"split_conditions":[1.94E1,1.5E1,3.429723E0,2.57E1,3.2823E1,2.11E1,2.28E1,5.5E1,1.28E1,2.58E1,1.1E0,1.1E0,4.305216E-1,3.3E0,5.101443E0,-9.712696E-3,-1.6722993E-3,8.102784E-1,3.6344E1,2.7577E1,3.0166E1,1.83E1,1.66E1,2.0828022E1,6.506361E-3,2.4210903E1,1.2E1,4.4587235E0,5.5748825E0,5E-1,2.8540628E1,-8.356514E-3,-1.6497998E-3,-6.608718E-3,-5.42992E-4,-7.5766942E-3,-4.7331373E-3,3.79864E-3,1.4736006E-4,-4.1169105E-3,-1.3680072E-3,1.7742573E-4,4.5449096E-3,-2.4842712E-4,1.8036857E-3,5.7350975E-3,9.800351E-3,1.0994775E-2,1.2746203E-2,2.8114545E-3,-8.9859124E-4,8.383735E-3,4.7532222E-4,7.273032E-3,1.0400838E-2,1.1928772E-3,5.125855E-3],"split_indices":[2,2,5,1,1,2,2,0,2,8,0,0,3,0,5,0,0,3,1,1,1,2,6,4,0,4,0,5,5,0,4,0,0,0,0,0,0,0,0,0,0,0,0,0,0,0,0,0,0,0,0,0,0,0,0,0,0],"split_type":[0,0,0,0,0,0,0,0,0,0,0,0,0,0,0,0,0,0,0,0,0,0,0,0,0,0,0,0,0,0,0,0,0,0,0,0,0,0,0,0,0,0,0,0,0,0,0,0,0,0,0,0,0,0,0,0,0],"sum_hessian":[6.331E3,3.174E3,3.157E3,2.375E3,7.99E2,1.674E3,1.483E3,1.655E3,7.2E2,5.42E2,2.57E2,6.6E1,1.608E3,7.43E2,7.4E2,1.652E3,3E0,3.53E2,3.67E2,5.34E2,8E0,1.97E2,6E1,3.9E1,2.7E1,2.76E2,1.332E3,6.24E2,1.19E2,5.24E2,2.16E2,3.49E2,4E0,3.62E2,5E0,1.17E2,4.17E2,4E0,4E0,1.16E2,8.1E1,5.1E1,9E0,1.7E1,2.2E1,7.9E1,1.97E2,9.07E2,4.25E2,3.21E2,3.03E2,1.08E2,1.1E1,3.86E2,1.38E2,8E1,1.36E2],"tree_param":{"num_deleted":"0","num_feature":"9","num_nodes":"57","size_leaf_vector":"1"}},{"base_weights":[-6.766988E-5,-7.584826E-1,7.8673375E-1,-8.941564E-1,-3.9236763E-1,1.0870334E0,4.7826457E-1,-9.541733E-1,-7.4449354E-1,-4.5774552E-1,1.4498402E-1,3.8339415E-1,1.107681E0,1.7225347E-1,6.3921493E-1,-9.552461E-3,-2.1830457E-3,-8.751116E-1,-6.6805625E-1,-6.13593E-1,-3.3560318E-1,-4.7476348E-2,4.8581526E-1,4.422393E-2,6.626429E-3,9.9867606E-1,1.1977363E-2,5.4153126E-2,6.6054744E-1,7.6776314E-1,3.1110978E-1,-8.869246E-3,-1.5349468E-3,-6.705398E-3,-9.769897E-4,-6.236828E-3,1.7613034E-3,-3.7231136E-3,4.0645697E-4,-1.7117019E-3,2.8099671E-3,-8.606406E-4,5.738727E-3,-4.5726055E-4,1.3784769E-3,7.391901E-3,1.0683313E-2,2.2893292E-3,-2.130159E-3,3.8778926E-3,9.088922E-3,4.550347E-3,8.570191E-3,-5.300356E-4,4.041123E-3],"categories":[],"categories_nodes":[],"categories_segments":[],"categories_sizes":[],"default_left":[0,0,0,0,0,0,0,0,0,0,0,0,0,0,0,0,0,0,0,0,0,0,0,0,0,0,0,0,0,0,0,0,0,0,0,0,0,0,0,0,0,0,0,0,0,0,0,0,0,0,0,0,0,0,0],"id":8,"left_children":[1,3,5,7,9,11,13,15,17,19,21,23,25,27,29,-1,-1,31,33,35,37,39,41,43,-1,45,-1,47,49,51,53,-1,-1,-1,-1,-1,-1,-1,-1,-1,-1,-1,-1,-1,-1,-1,-1,-1,-1,-1,-1,-1,-1,-1,-1],"loss_changes":[3.7312993E3,1.5627368E2,2.815354E2,1.7108154E1,3.0927017E1,2.0261108E1,7.4380005E1,1.3244629E-1,3.7816467E0,1.3666092E1,6.587616E0,4.7078595E0,8.563721E0,3.0428888E1,4.070645E1,0E0,0E0,1.2355652E0,2.4014282E-1,3.2633286E0,6.2825356E0,2.9517252E0,2.1086254E0,2.8495055E-1,0E0,8.721741E0,0E0,2.0511375E1,5.0850563E0,1.7792908E1,9.928753E0,0E0,0E0,0E0,0E0,0E0,0E0,0E0,0E0,0E0,0E0,0E0,0E0,0E0,0E0,0E0,0E0,0E0,0E0,0E0,0E0,0E0,0E0,0E0,0E0],"parents":[2147483647,0,0,1,1,2,2,3,3,4,4,5,5,6,6,7,7,8,8,9,9,10,10,11,11,12,12,13,13,14,14,17,17,18,18,19,19,20,20,21,21,22,22,23,23,25,25,27,27,28,28,29,29,30,30],"right_children":[2,4,6,8,10,12,14,16,18,20,22,24,26,28,30,-1,-1,32,34,36,38,40,42,44,-1,46,-1,48,50,52,54,-1,-1,-1,-1,-1,-1,-1,-1,-1,-1,-1,-1,-1,-1,-1,-1,-1,-1,-1,-1,-1,-1,-1,-1],"split_conditions":[2E1,1.5E1,3.3439622E0,2.57E1,4.6E0,2.11E1,2.22E1,5.6E1,1.22E1,3.0608E1,1.83E1,6E-1,1.9E0,1E0,5.101443E0,-9.552461E-3,-2.1830457E-3,7.819297E-1,2.58E1,2.58E1,7.6E0,2.8021349E1,2.0903852E1,4.1452417E-1,6.626429E-3,2.28E1,1.1977363E-2,4.587613E0,1.02E1,2.4025896E1,3.268E1,-8.869246E-3,-1.5349468E-3,-6.705398E-3,-9.769897E-4,-6.236828E-3,1.7613034E-3,-3.7231136E-3,4.0645697E-4,-1.7117019E-3,2.8099671E-3,-8.606406E-4,5.738727E-3,-4.5726055E-4,1.3784769E-3,7.391901E-3,1.0683313E-2,2.2893292E-3,-2.130159E-3,3.8778926E-3,9.088922E-3,4.550347E-3,8.570191E-3,-5.300356E-4,4.041123E-3],"split_indices":[2,2,5,1,0,2,2,0,2,1,2,0,0,0,5,0,0,3,8,8,7,4,4,3,0,2,0,5,0,4,1,0,0,0,0,0,0,0,0,0,0,0,0,0,0,0,0,0,0,0,0,0,0,0,0],"split_type":[0,0,0,0,0,0,0,0,0,0,0,0,0,0,0,0,0,0,0,0,0,0,0,0,0,0,0,0,0,0,0,0,0,0,0,0,0,0,0,0,0,0,0,0,0,0,0,0,0,0,0,0,0,0,0],"sum_hessian":[6.243E3,3.179E3,3.064E3,2.314E3,8.65E2,1.546E3,1.518E3,1.632E3,6.82E2,7.72E2,9.3E1,4.7E1,1.499E3,5.27E2,9.91E2,1.628E3,4E0,2.32E2,4.5E2,3.3E2,4.42E2,6.2E1,3.1E1,2.4E1,2.3E1,7.06E2,7.93E2,4.29E2,9.8E1,7.07E2,2.84E2,2.27E2,5E0,4.47E2,3E0,3.27E2,3E0,4.03E2,3.9E1,4.7E1,1.5E1,4E0,2.7E1,1.3E1,1.1E1,1.62E2,5.44E2,2.6E2,1.69E2,5.3E1,4.5E1,1.64E2,5.43E2,5.8E1,2.26E2],"tree_param":{"num_deleted":"0","num_feature":"9","num_nodes":"55","size_leaf_vector":"1"}},{"base_weights":[1.459993E-4,-7.6056695E-1,7.9245317E-1,-8.88415E-1,-3.966231E-1,4.567811E-1,1.0573132E0,-9.5014265E-3,-7.3886365E-1,-4.6232277E-1,-2.5794173E-3,1.1089773E-1,6.4129436E-1,1.0841146E0,3.3013672E-1,-8.226301E-1,-6.4597887E-1,-5.201226E-1,-2.3122789E-1,-1.879496E-1,3.9768505E-1,-1.5578466E-2,5.8600557E-1,7.762979E-1,3.121638E-1,4.4665375E-1,1.1076223E0,7.470108E-2,7.505458E-3,-8.287268E-3,-2.7728605E-4,-6.5771854E-3,-1.1295974E-3,-7.486891E-3,-4.5194933E-3,-2.7331917E-3,4.2727734E-3,-5.4796585E-3,-1.0076999E-3,1.766465E-4,5.484409E-3,1.4578546E-3,-2.4812217E-3,3.4355894E-3,8.258848E-3,2.7974073E-3,8.6044315E-3,4.288327E-4,4.2221416E-3,1.3816634E-3,7.593483E-3,9.831412E-3,1.17738545E-2,-1.078241E-3,3.8693007E-3],"categories":[],"categories_nodes":[],"categories_segments":[],"categories_sizes":[],"default_left":[0,0,0,0,0,0,0,0,0,0,0,0,0,0,0,0,0,0,0,0,0,0,0,0,0,0,0,0,0,0,0,0,0,0,0,0,0,0,0,0,0,0,0,0,0,0,0,0,0,0,0,0,0,0,0],"id":9,"left_children":[1,3,5,7,9,11,13,-1,15,17,19,21,23,25,27,29,31,33,35,37,39,41,43,45,47,49,51,53,-1,-1,-1,-1,-1,-1,-1,-1,-1,-1,-1,-1,-1,-1,-1,-1,-1,-1,-1,-1,-1,-1,-1,-1,-1,-1,-1],"loss_changes":[3.76639E3,1.4644556E2,2.6957532E2,1.806128E1,2.1642136E1,8.630066E1,3.1337402E1,0E0,2.7281494E0,8.914017E0,9.627386E0,2.8885715E1,3.8003387E1,2.2006714E1,6.939491E0,1.5198975E0,1.8103943E0,7.0699005E0,4.809272E0,2.4523945E0,2.2438521E0,1.4562853E1,4.3383064E0,2.4755035E1,7.745714E0,5.8486443E0,7.734619E0,2.9720163E0,0E0,0E0,0E0,0E0,0E0,0E0,0E0,0E0,0E0,0E0,0E0,0E0,0E0,0E0,0E0,0E0,0E0,0E0,0E0,0E0,0E0,0E0,0E0,0E0,0E0,0E0,0E0],"parents":[2147483647,0,0,1,1,2,2,3,3,4,4,5,5,6,6,8,8,9,9,10,10,11,11,12,12,13,13,14,14,15,15,16,16,17,17,18,18,19,19,20,20,21,21,22,22,23,23,24,24,25,25,26,26,27,27],"right_children":[2,4,6,8,10,12,14,-1,16,18,20,22,24,26,28,30,32,34,36,38,40,42,44,46,48,50,52,54,-1,-1,-1,-1,-1,-1,-1,-1,-1,-1,-1,-1,-1,-1,-1,-1,-1,-1,-1,-1,-1,-1,-1,-1,-1,-1,-1],"split_conditions":[1.94E1,1.5E1,3.3919197E-1,2.57E1,1.4E0,2.22E1,3.9816628E0,-9.5014265E-3,1.28E1,1.89E1,1.83E1,1E0,5.1315656E0,2.11E1,2E-1,4.01E1,1.3E1,2.796E1,2E1,2.683E1,2.0903852E1,4.601857E0,1.02E1,2.4025896E1,2.7843023E1,2E-1,3E-1,2.2072899E1,7.505458E-3,-8.287268E-3,-2.7728605E-4,-6.5771854E-3,-1.1295974E-3,-7.486891E-3,-4.5194933E-3,-2.7331917E-3,4.2727734E-3,-5.4796585E-3,-1.0076999E-3,1.766465E-4,5.484409E-3,1.4578546E-3,-2.4812217E-3,3.4355894E-3,8.258848E-3,2.7974073E-3,8.6044315E-3,4.288327E-4,4.2221416E-3,1.3816634E-3,7.593483E-3,9.831412E-3,1.17738545E-2,-1.078241E-3,3.8693007E-3],"split_indices":[2,2,3,1,0,2,5,0,2,2,2,0,5,2,6,0,6,1,8,1,4,5,0,4,4,6,0,4,0,0,0,0,0,0,0,0,0,0,0,0,0,0,0,0,0,0,0,0,0,0,0,0,0,0,0],"split_type":[0,0,0,0,0,0,0,0,0,0,0,0,0,0,0,0,0,0,0,0,0,0,0,0,0,0,0,0,0,0,0,0,0,0,0,0,0,0,0,0,0,0,0,0,0,0,0,0,0,0,0,0,0,0,0],"sum_hessian":[6.239E3,3.183E3,3.056E3,2.35E3,8.33E2,1.354E3,1.702E3,1.644E3,7.06E2,7.13E2,1.2E2,4.74E2,8.8E2,1.639E3,6.3E1,3.5E2,3.56E2,5.65E2,1.48E2,8.4E1,3.6E1,3.78E2,9.6E1,6.19E2,2.61E2,6.2E1,1.577E3,4.3E1,2E1,3.47E2,3E0,3.47E2,9E0,1.18E2,4.47E2,1.42E2,6E0,1.1E1,7.3E1,1.2E1,2.4E1,2.24E2,1.54E2,5.4E1,4.2E1,9.3E1,5.26E2,7.8E1,1.83E2,3.5E1,2.7E1,5.94E2,9.83E2,2.9E1,1.4E1],"tree_param":{"num_deleted":"0","num_feature":"9","num_nodes":"55","size_leaf_vector":"1"}},{"base_weights":[-1.05010765E-2,-7.540778E-1,7.629392E-1,-8.799553E-1,-3.9803648E-1,1.0446856E0,4.387155E-1,-9.43094E-3,-7.29911E-1,-4.526912E-1,1.6433534E-1,3.726152E-1,1.0703874E0,1.0249542E-1,6.1954343E-1,-8.131556E-3,-6.3846874E-1,-5.1557887E-1,-1.8456821E-1,2.3647506E-2,6.2117046E-1,8.832215E-2,6.9446135E-1,1.1505687E-2,9.319654E-1,7.9803774E-4,6.283173E-1,7.576568E-1,2.9169303E-1,-6.478046E-3,7.789268E-5,-5.2776258E-3,2.4766133E-3,2.9311664E-3,-2.2861287E-3,-1.0397163E-3,2.6749095E-3,7.620837E-4,7.4251383E-3,-5.522391E-4,1.6564003E-3,1.7930176E-3,8.031949E-3,8.013822E-3,1.090664E-2,1.9748372E-3,-1.8066787E-3,3.51435E-3,8.726143E-3,3.5644115E-3,8.551126E-3,6.182123E-4,4.242485E-3],"categories":[],"categories_nodes":[],"categories_segments":[],"categories_sizes":[],"default_left":[0,0,0,0,0,0,0,0,0,0,0,0,0,0,0,0,0,0,0,0,0,0,0,0,0,0,0,0,0,0,0,0,0,0,0,0,0,0,0,0,0,0,0,0,0,0,0,0,0,0,0,0,0],"id":10,"left_children":[1,3,5,7,9,11,13,-1,15,17,19,21,23,25,27,-1,29,31,33,35,37,39,41,-1,43,45,47,49,51,-1,-1,-1,-1,-1,-1,-1,-1,-1,-1,-1,-1,-1,-1,-1,-1,-1,-1,-1,-1,-1,-1,-1,-1],"loss_changes":[3.5915757E3,1.4081995E2,2.7717896E2,1.863501E1,2.6250015E1,2.6086182E1,8.6673035E1,0E0,2.7244873E0,1.2403915E1,4.8752217E0,5.8369455E0,1.1866699E1,2.7046257E1,4.090094E1,0E0,2.2974396E0,6.437668E0,3.5686793E0,2.1781504E0,8.2549477E-1,5.2292246E-1,9.1814995E-1,0E0,7.9368286E0,1.5527529E1,3.8908653E0,2.3809479E1,8.473953E0,0E0,0E0,0E0,0E0,0E0,0E0,0E0,0E0,0E0,0E0,0E0,0E0,0E0,0E0,0E0,0E0,0E0,0E0,0E0,0E0,0E0,0E0,0E0,0E0],"parents":[2147483647,0,0,1,1,2,2,3,3,4,4,5,5,6,6,8,8,9,9,10,10,11,11,12,12,13,13,14,14,16,16,17,17,18,18,19,19,20,20,21,21,22,22,24,24,25,25,26,26,27,27,28,28],"right_children":[2,4,6,8,10,12,14,-1,16,18,20,22,24,26,28,-1,30,32,34,36,38,40,42,-1,44,46,48,50,52,-1,-1,-1,-1,-1,-1,-1,-1,-1,-1,-1,-1,-1,-1,-1,-1,-1,-1,-1,-1,-1,-1,-1,-1],"split_conditions":[1.94E1,1.5E1,3.45445E0,2.57E1,4.6E0,2.11E1,2.22E1,-9.43094E-3,1.28E1,3.4105E1,1.65E1,6E-1,2.582896E0,2.1E0,5.101443E0,-8.131556E-3,3.6344E1,2.58E1,3.2540114E0,3.699E1,1.81E1,2.0384216E1,2.0755571E1,1.1505687E-2,1.9E0,4.3472185E0,2.5E0,2.4025896E1,2.8274622E1,-6.478046E-3,7.789268E-5,-5.2776258E-3,2.4766133E-3,2.9311664E-3,-2.2861287E-3,-1.0397163E-3,2.6749095E-3,7.620837E-4,7.4251383E-3,-5.522391E-4,1.6564003E-3,1.7930176E-3,8.031949E-3,8.013822E-3,1.090664E-2,1.9748372E-3,-1.8066787E-3,3.51435E-3,8.726143E-3,3.5644115E-3,8.551126E-3,6.182123E-4,4.242485E-3],"split_indices":[2,2,5,1,0,2,2,0,2,1,6,0,5,0,5,0,1,8,5,1,0,4,4,0,0,5,6,4,4,0,0,0,0,0,0,0,0,0,0,0,0,0,0,0,0,0,0,0,0,0,0,0,0],"split_type":[0,0,0,0,0,0,0,0,0,0,0,0,0,0,0,0,0,0,0,0,0,0,0,0,0,0,0,0,0,0,0,0,0,0,0,0,0,0,0,0,0,0,0,0,0,0,0,0,0,0,0,0,0],"sum_hessian":[6.235E3,3.179E3,3.056E3,2.343E3,8.36E2,1.629E3,1.427E3,1.63E3,7.13E2,7.63E2,7.3E1,6.3E1,1.566E3,5.02E2,9.25E2,3.52E2,3.61E2,6.14E2,1.49E2,6E1,1.3E1,3.7E1,2.6E1,9.68E2,5.98E2,4.25E2,7.7E1,6.46E2,2.79E2,3.56E2,5E0,6.06E2,8E0,1E1,1.39E2,4.1E1,1.9E1,4E0,9E0,1.3E1,2.4E1,7E0,1.9E1,3.45E2,2.53E2,2.04E2,2.21E2,4.2E1,3.5E1,1.31E2,5.15E2,1.05E2,1.74E2],"tree_param":{"num_deleted":"0","num_feature":"9","num_nodes":"53","size_leaf_vector":"1"}},{"base_weights":[6.124654E-4,-7.41681E-1,7.630639E-1,-8.711548E-1,-3.7420785E-1,1.0425102E0,4.587052E-1,-9.384308E-3,-7.310123E-1,-4.4606233E-1,2.1717559E-1,3.9113927E-1,1.0676914E0,1.5247053E-1,6.226146E-1,-8.1528926E-1,-6.326039E-1,-5.6590164E-1,-2.850254E-1,-6.0521923E-2,3.472654E-1,7.6380715E-2,7.301831E-1,9.4091666E-1,1.1510625E0,5.210764E-2,8.859284E-1,7.401743E-1,3.085487E-1,-8.2154125E-3,-7.267829E-4,-6.412077E-3,6.45294E-6,-5.9651723E-3,-1.503057E-3,-3.138569E-3,3.7262335E-3,-1.9990026E-3,1.5249755E-3,6.1818026E-3,1.3445079E-3,-9.897882E-5,1.8415011E-3,1.0605174E-3,8.499727E-3,6.8653165E-3,1.0257727E-2,1.1538135E-2,1.0691338E-3,1.753506E-3,-1.9306263E-3,9.083507E-3,1.5155606E-3,3.3816483E-3,8.362463E-3,-4.0573042E-4,4.125696E-3],"categories":[],"categories_nodes":[],"categories_segments":[],"categories_sizes":[],"default_left":[0,0,0,0,0,0,0,0,0,0,0,0,0,0,0,0,0,0,0,0,0,0,0,0,0,0,0,0,0,0,0,0,0,0,0,0,0,0,0,0,0,0,0,0,0,0,0,0,0,0,0,0,0,0,0,0,0],"id":11,"left_children":[1,3,5,7,9,11,13,-1,15,17,19,21,23,25,27,29,31,33,35,37,39,41,43,45,47,49,51,53,55,-1,-1,-1,-1,-1,-1,-1,-1,-1,-1,-1,-1,-1,-1,-1,-1,-1,-1,-1,-1,-1,-1,-1,-1,-1,-1,-1,-1],"loss_changes":[3.5542478E3,1.4963928E2,2.609497E2,1.8549927E1,3.611685E1,2.4190186E1,7.433838E1,0E0,3.7868958E0,1.3563034E1,3.5295682E0,6.897238E0,1.0736816E1,3.8468876E1,3.456711E1,1.4923706E0,2.1637573E0,4.871887E0,6.836008E0,1.1666322E0,3.2567134E0,4.0776455E-1,1.8461533E0,1.0165894E1,1.8739014E0,1.4338573E1,2.4305344E-1,2.5581146E1,1.0035156E1,0E0,0E0,0E0,0E0,0E0,0E0,0E0,0E0,0E0,0E0,0E0,0E0,0E0,0E0,0E0,0E0,0E0,0E0,0E0,0E0,0E0,0E0,0E0,0E0,0E0,0E0,0E0,0E0],"parents":[2147483647,0,0,1,1,2,2,3,3,4,4,5,5,6,6,8,8,9,9,10,10,11,11,12,12,13,13,14,14,15,15,16,16,17,17,18,18,19,19,20,20,21,21,22,22,23,23,24,24,25,25,26,26,27,27,28,28],"right_children":[2,4,6,8,10,12,14,-1,16,18,20,22,24,26,28,30,32,34,36,38,40,42,44,46,48,50,52,54,56,-1,-1,-1,-1,-1,-1,-1,-1,-1,-1,-1,-1,-1,-1,-1,-1,-1,-1,-1,-1,-1,-1,-1,-1,-1,-1,-1,-1],"split_conditions":[1.94E1,1.5E1,3.429723E0,2.5032E1,4.6E0,2.11E1,2.22E1,-9.384308E-3,1.28E1,1.78E1,2.0903852E1,1.1E0,3E-1,1.02E1,5.1315656E0,4.01E1,3.6344E1,7.6E0,2.25E1,2.04E1,4.2743273E0,4.305216E-1,2.0755571E1,2.33E1,2.9368513E1,4.911004E0,5.1779356E0,2.3308142E1,3.268E1,-8.2154125E-3,-7.267829E-4,-6.412077E-3,6.45294E-6,-5.9651723E-3,-1.503057E-3,-3.138569E-3,3.7262335E-3,-1.9990026E-3,1.5249755E-3,6.1818026E-3,1.3445079E-3,-9.897882E-5,1.8415011E-3,1.0605174E-3,8.499727E-3,6.8653165E-3,1.0257727E-2,1.1538135E-2,1.0691338E-3,1.753506E-3,-1.9306263E-3,9.083507E-3,1.5155606E-3,3.3816483E-3,8.362463E-3,-4.0573042E-4,4.125696E-3],"split_indices":[2,2,5,1,0,2,2,0,2,2,4,0,0,0,5,0,1,7,8,0,5,3,4,2,4,5,5,4,1,0,0,0,0,0,0,0,0,0,0,0,0,0,0,0,0,0,0,0,0,0,0,0,0,0,0,0,0],"split_type":[0,0,0,0,0,0,0,0,0,0,0,0,0,0,0,0,0,0,0,0,0,0,0,0,0,0,0,0,0,0,0,0,0,0,0,0,0,0,0,0,0,0,0,0,0,0,0,0,0,0,0,0,0,0,0,0,0],"sum_hessian":[6.27E3,3.177E3,3.093E3,2.344E3,8.33E2,1.606E3,1.487E3,1.564E3,7.8E2,7.44E2,8.9E1,6.3E1,1.543E3,5.22E2,9.65E2,4E2,3.8E2,4.19E2,3.25E2,2.9E1,6E1,3.6E1,2.7E1,6.37E2,9.06E2,4.64E2,5.8E1,6.97E2,2.68E2,3.96E2,4E0,3.75E2,5E0,3.88E2,3.1E1,3.14E2,1.1E1,1.8E1,1.1E1,2.2E1,3.8E1,2.2E1,1.4E1,6E0,2.1E1,1.71E2,4.66E2,9.03E2,3E0,3.1E2,1.54E2,5.5E1,3E0,1.39E2,5.58E2,6.2E1,2.06E2],"tree_param":{"num_deleted":"0","num_feature":"9","num_nodes":"57","size_leaf_vector":"1"}},{"base_weights":[-9.200326E-3,-7.425344E-1,7.478795E-1,-8.8447386E-1,-4.4487667E-1,1.0177385E0,4.3702227E-1,-9.283098E-3,-7.410195E-1,-5.6013894E-1,-1.8731764E-1,7.232423E-1,1.0677441E0,1.9345453E-1,6.701906E-1,-7.555691E-3,-1.1253635E-1,-5.921364E-1,-1.7376772E-1,-2.8930092E-1,2.6465154E-1,3.6296973E-1,8.0828977E-1,4.7203326E-1,1.0812362E0,8.178346E-2,6.8569607E-1,7.9100347E-1,3.708563E-1,-3.9266944E-3,3.746353E-3,-6.877138E-3,-4.845685E-3,-2.9207605E-3,2.513925E-3,-1.6502091E-3,-4.2091757E-3,1.2356848E-3,6.682611E-3,1.9543099E-3,5.8816243E-3,8.292211E-3,2.2391826E-3,1.5786069E-3,7.7247117E-3,1.0147989E-2,1.1765035E-2,2.6138888E-3,-8.8235165E-4,4.604141E-3,8.840058E-3,3.6817943E-3,8.472648E-3,1.2379929E-3,4.759601E-3],"categories":[],"categories_nodes":[],"categories_segments":[],"categories_sizes":[],"default_left":[0,0,0,0,0,0,0,0,0,0,0,0,0,0,0,0,0,0,0,0,0,0,0,0,0,0,0,0,0,0,0,0,0,0,0,0,0,0,0,0,0,0,0,0,0,0,0,0,0,0,0,0,0,0,0],"id":12,"left_children":[1,3,5,7,9,11,13,-1,15,17,19,21,23,25,27,-1,29,31,33,35,37,39,41,43,45,47,49,51,53,-1,-1,-1,-1,-1,-1,-1,-1,-1,-1,-1,-1,-1,-1,-1,-1,-1,-1,-1,-1,-1,-1,-1,-1,-1,-1],"loss_changes":[3.4821672E3,1.3250598E2,2.565077E2,9.926514E0,3.0245255E1,2.0229004E1,8.1216644E1,0E0,4.3253174E0,8.248413E0,1.554998E1,6.2292175E0,8.529053E0,3.883586E1,2.4997192E1,0E0,3.1938548E0,4.981491E0,3.4897966E0,4.0269375E0,3.0953126E0,1.5351682E0,1.4371033E0,3.0728264E0,2.4381104E0,1.8057426E1,3.6830215E0,1.0665039E1,5.3840294E0,0E0,0E0,0E0,0E0,0E0,0E0,0E0,0E0,0E0,0E0,0E0,0E0,0E0,0E0,0E0,0E0,0E0,0E0,0E0,0E0,0E0,0E0,0E0,0E0,0E0,0E0],"parents":[2147483647,0,0,1,1,2,2,3,3,4,4,5,5,6,6,8,8,9,9,10,10,11,11,12,12,13,13,14,14,16,16,17,17,18,18,19,19,20,20,21,21,22,22,23,23,24,24,25,25,26,26,27,27,28,28],"right_children":[2,4,6,8,10,12,14,-1,16,18,20,22,24,26,28,-1,30,32,34,36,38,40,42,44,46,48,50,52,54,-1,-1,-1,-1,-1,-1,-1,-1,-1,-1,-1,-1,-1,-1,-1,-1,-1,-1,-1,-1,-1,-1,-1,-1,-1,-1],"split_conditions":[1.94E1,2.8402E1,3.4943602E0,2.518E1,1.78E1,3.9362496E-1,2.28E1,-9.283098E-3,2.7267687E1,1E1,1.1E0,2.2540163E1,2.11E1,3.3E0,5.1315656E0,-7.555691E-3,1.72E1,1.5E1,2.7539494E1,4.4298196E0,1.5E1,2.28E1,2.9478027E1,3.2E0,7.5E0,4.4587235E0,1.13E1,2.4025896E1,2.8274622E1,-3.9266944E-3,3.746353E-3,-6.877138E-3,-4.845685E-3,-2.9207605E-3,2.513925E-3,-1.6502091E-3,-4.2091757E-3,1.2356848E-3,6.682611E-3,1.9543099E-3,5.8816243E-3,8.292211E-3,2.2391826E-3,1.5786069E-3,7.7247117E-3,1.0147989E-2,1.1765035E-2,2.6138888E-3,-8.8235165E-4,4.604141E-3,8.840058E-3,3.6817943E-3,8.472648E-3,1.2379929E-3,4.759601E-3],"split_indices":[2,1,5,1,2,3,2,0,4,0,0,4,2,0,5,0,2,2,4,5,6,2,4,0,0,5,0,4,4,0,0,0,0,0,0,0,0,0,0,0,0,0,0,0,0,0,0,0,0,0,0,0,0,0,0],"split_type":[0,0,0,0,0,0,0,0,0,0,0,0,0,0,0,0,0,0,0,0,0,0,0,0,0,0,0,0,0,0,0,0,0,0,0,0,0,0,0,0,0,0,0,0,0,0,0,0,0,0,0,0,0,0,0],"sum_hessian":[6.262E3,3.181E3,3.081E3,2.147E3,1.034E3,1.643E3,1.438E3,1.623E3,5.24E2,7.1E2,3.24E2,2.5E2,1.393E3,7.08E2,7.3E2,5.11E2,1.3E1,6.53E2,5.7E1,2.66E2,5.8E1,5.3E1,1.97E2,3.5E1,1.358E3,5.82E2,1.26E2,5.14E2,2.16E2,9E0,4E0,3.31E2,3.22E2,4.6E1,1.1E1,1.43E2,1.23E2,4.8E1,1E1,3.6E1,1.7E1,1.88E2,9E0,2.1E1,1.4E1,8.35E2,5.23E2,2.82E2,3E2,6.7E1,5.9E1,6.5E1,4.49E2,6.8E1,1.48E2],"tree_param":{"num_deleted":"0","num_feature":"9","num_nodes":"55","size_leaf_vector":"1"}},{"base_weights":[-3.1121504E-3,-7.3026E-1,7.474422E-1,-8.8274515E-1,-4.390696E-1,1.0130603E0,4.438233E-1,-8.8849306E-1,-1.6693465E-1,-5.9919363E-1,-2.570504E-1,4.1936907E-1,1.0367854E0,2.033451E-1,6.918207E-1,-9.236491E-3,-7.584522E-1,-3.5372725E-1,3.9188103E-3,-6.128383E-1,1.1873515E-1,-3.385297E-1,3.092269E-1,1.5096572E-1,8.106162E-1,1.0944679E0,8.751435E-1,6.1595548E-2,7.742911E-1,8.1786835E-1,3.7088522E-1,-7.609366E-3,-1.2658028E-3,-3.8813504E-3,-4.703121E-4,-6.946773E-3,-5.3393524E-3,-0E0,1.5465375E-3,-3.6954258E-3,-1.3701116E-4,1.4232616E-3,7.3702177E-3,2.583001E-4,2.5284921E-3,2.1064382E-3,8.909049E-3,2.103701E-3,1.0957794E-2,7.339097E-3,1.0080022E-2,2.368675E-3,-1.2202042E-3,4.789052E-3,9.87826E-3,7.207219E-3,1.0139522E-2,1.7322161E-3,4.642281E-3],"categories":[],"categories_nodes":[],"categories_segments":[],"categories_sizes":[],"default_left":[0,0,0,0,0,0,0,0,0,0,0,0,0,0,0,0,0,0,0,0,0,0,0,0,0,0,0,0,0,0,0,0,0,0,0,0,0,0,0,0,0,0,0,0,0,0,0,0,0,0,0,0,0,0,0,0,0,0,0],"id":13,"left_children":[1,3,5,7,9,11,13,15,17,19,21,23,25,27,29,-1,31,33,-1,35,37,39,41,43,45,47,49,51,53,55,57,-1,-1,-1,-1,-1,-1,-1,-1,-1,-1,-1,-1,-1,-1,-1,-1,-1,-1,-1,-1,-1,-1,-1,-1,-1,-1,-1,-1],"loss_changes":[3.4415864E3,1.4015002E2,2.4785303E2,7.780884E0,3.152507E1,2.0935303E1,8.609961E1,5.833618E0,3.0900803E0,6.163437E0,2.4934345E1,6.852831E0,9.783203E0,6.013366E1,2.7288452E1,0E0,1.6903687E-1,7.626557E-2,0E0,1.7484589E0,5.1625118E-2,4.6207085E0,4.3141294E0,5.641905E-1,3.0031776E-1,4.675293E-2,4.4206543E0,1.9594368E1,6.823082E0,5.8685303E0,3.4272385E0,0E0,0E0,0E0,0E0,0E0,0E0,0E0,0E0,0E0,0E0,0E0,0E0,0E0,0E0,0E0,0E0,0E0,0E0,0E0,0E0,0E0,0E0,0E0,0E0,0E0,0E0,0E0,0E0],"parents":[2147483647,0,0,1,1,2,2,3,3,4,4,5,5,6,6,7,7,8,8,9,9,10,10,11,11,12,12,13,13,14,14,16,16,17,17,19,19,20,20,21,21,22,22,23,23,24,24,25,25,26,26,27,27,28,28,29,29,30,30],"right_children":[2,4,6,8,10,12,14,16,18,20,22,24,26,28,30,-1,32,34,-1,36,38,40,42,44,46,48,50,52,54,56,58,-1,-1,-1,-1,-1,-1,-1,-1,-1,-1,-1,-1,-1,-1,-1,-1,-1,-1,-1,-1,-1,-1,-1,-1,-1,-1,-1,-1],"split_conditions":[1.94E1,2.796E1,3.429723E0,1.89E1,1.61E1,2.11E1,2.28E1,2.5032E1,2.7022448E1,3.8937E1,4.6E0,7E0,2.783472E0,3.3E0,5.101443E0,-9.236491E-3,2.8021349E1,5.838292E0,3.9188103E-3,1.39E1,4.6922097E0,1.8E0,2.25E1,2.1386023E1,2E-1,2.3434456E-1,1E0,4.4587235E0,1.13E1,3E-1,2.8274622E1,-7.609366E-3,-1.2658028E-3,-3.8813504E-3,-4.703121E-4,-6.946773E-3,-5.3393524E-3,-0E0,1.5465375E-3,-3.6954258E-3,-1.3701116E-4,1.4232616E-3,7.3702177E-3,2.583001E-4,2.5284921E-3,2.1064382E-3,8.909049E-3,2.103701E-3,1.0957794E-2,7.339097E-3,1.0080022E-2,2.368675E-3,-1.2202042E-3,4.789052E-3,9.87826E-3,7.207219E-3,1.0139522E-2,1.7322161E-3,4.642281E-3],"split_indices":[2,1,5,2,2,2,2,1,4,1,0,0,5,0,5,0,4,5,0,2,5,6,0,4,6,3,0,5,0,0,4,0,0,0,0,0,0,0,0,0,0,0,0,0,0,0,0,0,0,0,0,0,0,0,0,0,0,0,0],"split_type":[0,0,0,0,0,0,0,0,0,0,0,0,0,0,0,0,0,0,0,0,0,0,0,0,0,0,0,0,0,0,0,0,0,0,0,0,0,0,0,0,0,0,0,0,0,0,0,0,0,0,0,0,0,0,0,0,0,0,0],"sum_hessian":[6.296E3,3.198E3,3.098E3,2.092E3,1.106E3,1.646E3,1.452E3,2.074E3,1.8E1,5.82E2,5.24E2,6.7E1,1.579E3,7.42E2,7.1E2,1.608E3,4.66E2,1.5E1,3E0,5.72E2,1E1,4.6E2,6.4E1,4.4E1,2.3E1,1.142E3,4.37E2,5.99E2,1.43E2,5.04E2,2.06E2,4.63E2,3E0,1.2E1,3E0,2.61E2,3.11E2,4E0,6E0,4.19E2,4.1E1,5.1E1,1.3E1,2.3E1,2.1E1,5E0,1.8E1,3E0,1.139E3,2.28E2,2.09E2,3.06E2,2.93E2,6.7E1,7.6E1,3.53E2,1.51E2,7.1E1,1.35E2],"tree_param":{"num_deleted":"0","num_feature":"9","num_nodes":"59","size_leaf_vector":"1"}},{"base_weights":[-5.812306E-4,-7.2759587E-1,7.416263E-1,-8.461022E-1,-3.8340175E-1,9.650747E-1,3.9764234E-1,-9.131052E-3,-7.1393496E-1,-4.3875387E-1,1.2717295E-1,3.3741558E-1,9.9937105E-1,1.8218946E-1,6.2774014E-1,-8.089965E-1,-6.451007E-1,-5.4095966E-1,-2.936594E-1,-1.5467858E-1,2.614048E-1,1.689699E-1,8.968806E-3,8.584665E-1,1.1093695E0,4.740348E-2,6.346849E-1,8.0604947E-1,3.1336936E-1,-8.175259E-3,2.423911E-4,-6.6134594E-3,-3.232028E-3,-5.591435E-3,-2.0259044E-3,-3.271442E-3,1.2411111E-3,-2.8503712E-3,2.385571E-3,3.4262918E-4,3.8912934E-3,9.445766E-5,4.017706E-3,5.8213696E-3,9.636477E-3,1.1718087E-3,1.11171175E-2,-5.722606E-4,2.879081E-3,7.2468966E-3,1.8266692E-4,3.911418E-3,8.348837E-3,1.0814028E-3,4.0698387E-3],"categories":[],"categories_nodes":[],"categories_segments":[],"categories_sizes":[],"default_left":[0,0,0,0,0,0,0,0,0,0,0,0,0,0,0,0,0,0,0,0,0,0,0,0,0,0,0,0,0,0,0,0,0,0,0,0,0,0,0,0,0,0,0,0,0,0,0,0,0,0,0,0,0,0,0],"id":14,"left_children":[1,3,5,7,9,11,13,-1,15,17,19,21,23,25,27,29,31,33,35,37,39,41,-1,43,45,47,49,51,53,-1,-1,-1,-1,-1,-1,-1,-1,-1,-1,-1,-1,-1,-1,-1,-1,-1,-1,-1,-1,-1,-1,-1,-1,-1,-1],"loss_changes":[3.3848826E3,1.2751599E2,2.3652673E2,1.741504E1,2.3512741E1,3.860681E1,6.0374283E1,0E0,2.5780945E0,1.0125748E1,3.3908517E0,9.030828E0,2.2599243E1,3.899796E1,3.186586E1,2.4668732E0,1.4369965E0,1.9970169E0,4.67181E0,1.8824852E0,1.6026816E0,3.170851E0,0E0,2.0350403E1,1.5054932E0,1.2712556E1,8.015167E0,2.7309113E0,4.012802E0,0E0,0E0,0E0,0E0,0E0,0E0,0E0,0E0,0E0,0E0,0E0,0E0,0E0,0E0,0E0,0E0,0E0,0E0,0E0,0E0,0E0,0E0,0E0,0E0,0E0,0E0],"parents":[2147483647,0,0,1,1,2,2,3,3,4,4,5,5,6,6,8,8,9,9,10,10,11,11,12,12,13,13,14,14,15,15,16,16,17,17,18,18,19,19,20,20,21,21,23,23,24,24,25,25,26,26,27,27,28,28],"right_children":[2,4,6,8,10,12,14,-1,16,18,20,22,24,26,28,30,32,34,36,38,40,42,-1,44,46,48,50,52,54,-1,-1,-1,-1,-1,-1,-1,-1,-1,-1,-1,-1,-1,-1,-1,-1,-1,-1,-1,-1,-1,-1,-1,-1,-1,-1],"split_conditions":[1.94E1,1.5E1,3.7907612E0,2.5032E1,4.6E0,2.11E1,2.819975E1,-9.131052E-3,1.22E1,1.78E1,2.0384216E1,1.46E1,8E-1,3E-1,5.081348E0,4.01E1,7.2E0,6.5E0,1.8E0,3.7787E1,1.72E1,2.180919E1,8.968806E-3,2.28E1,1.2562872E0,2.33E1,5.3070073E0,2.06E1,2.28E1,-8.175259E-3,2.423911E-4,-6.6134594E-3,-3.232028E-3,-5.591435E-3,-2.0259044E-3,-3.271442E-3,1.2411111E-3,-2.8503712E-3,2.385571E-3,3.4262918E-4,3.8912934E-3,9.445766E-5,4.017706E-3,5.8213696E-3,9.636477E-3,1.1718087E-3,1.11171175E-2,-5.722606E-4,2.879081E-3,7.2468966E-3,1.8266692E-4,3.911418E-3,8.348837E-3,1.0814028E-3,4.0698387E-3],"split_indices":[2,2,5,1,0,2,4,0,2,2,4,6,0,0,5,0,6,7,6,1,2,4,0,2,4,2,5,2,2,0,0,0,0,0,0,0,0,0,0,0,0,0,0,0,0,0,0,0,0,0,0,0,0,0,0],"split_type":[0,0,0,0,0,0,0,0,0,0,0,0,0,0,0,0,0,0,0,0,0,0,0,0,0,0,0,0,0,0,0,0,0,0,0,0,0,0,0,0,0,0,0,0,0,0,0,0,0,0,0,0,0,0,0],"sum_hessian":[6.263E3,3.164E3,3.099E3,2.348E3,8.16E2,1.873E3,1.226E3,1.538E3,8.1E2,7.37E2,7.9E1,1E2,1.773E3,6.38E2,5.88E2,3.17E2,4.93E2,4.24E2,3.13E2,2.5E1,5.4E1,8.2E1,1.8E1,7.97E2,9.76E2,4.96E2,1.42E2,3.7E2,2.18E2,3.14E2,3E0,4.64E2,2.9E1,3.99E2,2.5E1,2.91E2,2.2E1,2E1,5E0,2.2E1,3.2E1,5.2E1,3E1,2.29E2,5.68E2,3E0,9.73E2,3.48E2,1.48E2,1.23E2,1.9E1,2.9E1,3.41E2,7.2E1,1.46E2],"tree_param":{"num_deleted":"0","num_feature":"9","num_nodes":"55","size_leaf_vector":"1"}},{"base_weights":[-8.984727E-3,-7.140975E-1,7.347016E-1,-8.556579E-1,-3.9934057E-1,1.0063262E0,4.4922337E-1,-9.022506E-1,-7.2237056E-1,-4.4700918E-1,2.1831061E-1,8.4671086E-1,1.0972987E-2,1.3632613E-1,6.025342E-1,-9.034327E-3,-8.823757E-4,-7.318382E-1,3.4988593E-2,-5.4903364E-1,-2.4203679E-1,-1.6879426E-1,5.283415E-1,2.2219285E-1,9.1577774E-1,2.803746E-2,9.343256E-1,7.245023E-1,2.7691394E-1,-7.3641604E-3,4.8381614E-4,-2.6609912E-3,3.643444E-3,-5.5755214E-3,1.04611536E-4,-2.909072E-3,1.4355944E-3,-3.5263654E-3,1.1766055E-3,2.6925108E-3,7.7949488E-3,6.9855404E-4,4.6371613E-3,1.0058864E-2,7.53788E-3,1.6394132E-3,-1.3849258E-3,9.877104E-3,1.6888469E-3,3.4299758E-3,8.075671E-3,-2.3844109E-4,3.7441757E-3],"categories":[],"categories_nodes":[],"categories_segments":[],"categories_sizes":[],"default_left":[0,0,0,0,0,0,0,0,0,0,0,0,0,0,0,0,0,0,0,0,0,0,0,0,0,0,0,0,0,0,0,0,0,0,0,0,0,0,0,0,0,0,0,0,0,0,0,0,0,0,0,0,0],"id":15,"left_children":[1,3,5,7,9,11,13,15,17,19,21,23,-1,25,27,-1,-1,29,31,33,35,37,39,41,43,45,47,49,51,-1,-1,-1,-1,-1,-1,-1,-1,-1,-1,-1,-1,-1,-1,-1,-1,-1,-1,-1,-1,-1,-1,-1,-1],"loss_changes":[3.2679524E3,1.4070422E2,2.3278186E2,1.0253662E1,3.0012253E1,1.7667114E1,7.089557E1,1.0523682E0,4.471283E0,1.8746613E1,9.4829445E0,2.4101898E1,0E0,4.2634277E1,3.849289E1,0E0,0E0,2.350647E0,1.6845632E0,3.0292969E0,6.2348614E0,2.1794672E0,1.6437979E0,2.1762247E0,3.6961975E0,1.0119446E1,1.4612083E0,2.1379822E1,8.290695E0,0E0,0E0,0E0,0E0,0E0,0E0,0E0,0E0,0E0,0E0,0E0,0E0,0E0,0E0,0E0,0E0,0E0,0E0,0E0,0E0,0E0,0E0,0E0,0E0],"parents":[2147483647,0,0,1,1,2,2,3,3,4,4,5,5,6,6,7,7,8,8,9,9,10,10,11,11,13,13,14,14,17,17,18,18,19,19,20,20,21,21,22,22,23,23,24,24,25,25,26,26,27,27,28,28],"right_children":[2,4,6,8,10,12,14,16,18,20,22,24,-1,26,28,-1,-1,30,32,34,36,38,40,42,44,46,48,50,52,-1,-1,-1,-1,-1,-1,-1,-1,-1,-1,-1,-1,-1,-1,-1,-1,-1,-1,-1,-1,-1,-1,-1,-1],"split_conditions":[2E1,2.8541E1,3.3439622E0,2.5032E1,1.1E1,2E-1,2.22E1,2.7898987E1,2.7E1,1.78E1,1.61E1,2.17E1,1.0972987E-2,1.09E1,5.101443E0,-9.034327E-3,-8.823757E-4,2.8540628E1,1.22E1,3.25E1,1.1E0,6.5E0,1.89E1,2.1899986E1,2.6051025E0,4.481423E0,4.6922097E0,2.3308142E1,3.268E1,-7.3641604E-3,4.8381614E-4,-2.6609912E-3,3.643444E-3,-5.5755214E-3,1.04611536E-4,-2.909072E-3,1.4355944E-3,-3.5263654E-3,1.1766055E-3,2.6925108E-3,7.7949488E-3,6.9855404E-4,4.6371613E-3,1.0058864E-2,7.53788E-3,1.6394132E-3,-1.3849258E-3,9.877104E-3,1.6888469E-3,3.4299758E-3,8.075671E-3,-2.3844109E-4,3.7441757E-3],"split_indices":[2,1,5,1,0,0,2,4,8,2,2,2,0,6,5,0,0,4,2,6,0,6,2,4,5,5,5,4,1,0,0,0,0,0,0,0,0,0,0,0,0,0,0,0,0,0,0,0,0,0,0,0,0],"split_type":[0,0,0,0,0,0,0,0,0,0,0,0,0,0,0,0,0,0,0,0,0,0,0,0,0,0,0,0,0,0,0,0,0,0,0,0,0,0,0,0,0,0,0,0,0,0,0,0,0,0,0,0,0],"sum_hessian":[6.222E3,3.194E3,3.028E3,2.197E3,9.97E2,1.545E3,1.483E3,1.606E3,5.91E2,9.27E2,7E1,5.8E2,9.65E2,4.91E2,9.92E2,1.603E3,3E0,5.84E2,7E0,6.13E2,3.14E2,3.2E1,3.8E1,6E1,5.2E2,4.37E2,5.4E1,7.17E2,2.75E2,5.81E2,3E0,4E0,3E0,6.04E2,9E0,2.8E2,3.4E1,1.9E1,1.3E1,2.4E1,1.4E1,4.1E1,1.9E1,3.17E2,2.03E2,2.41E2,1.96E2,4.9E1,5E0,1.33E2,5.84E2,6.8E1,2.07E2],"tree_param":{"num_deleted":"0","num_feature":"9","num_nodes":"53","size_leaf_vector":"1"}},{"base_weights":[6.9839125E-3,-7.090145E-1,7.2833973E-1,-8.296291E-1,-3.660116E-1,9.881481E-1,4.1553673E-1,-8.9179605E-1,-6.9670427E-1,-4.235568E-1,1.7509885E-1,8.280398E-1,1.0917829E0,1.8984786E-1,6.3751227E-1,-8.927181E-3,-1.4407401E-3,-7.8023756E-1,-5.9994507E-1,-5.598323E-1,-3.1072128E-1,1.4233595E-2,6.6522276E-1,3.0385262E-1,9.111503E-1,1.09347915E-2,1.8447522E-3,5.1475763E-2,6.308408E-1,7.501877E-1,3.500674E-1,-7.857169E-3,-1.6396571E-4,-6.171633E-3,-1.8120905E-3,-6.0465E-3,-1.792144E-3,-3.470122E-3,2.3290395E-5,-1.5738662E-3,2.8495225E-3,1.6297627E-4,7.690632E-3,1.2775688E-3,5.2419603E-3,6.5380787E-3,9.559259E-3,2.59393E-3,-1.1346982E-3,4.1773897E-3,8.911531E-3,6.7170863E-3,9.390782E-3,-7.7573373E-4,3.8092046E-3],"categories":[],"categories_nodes":[],"categories_segments":[],"categories_sizes":[],"default_left":[0,0,0,0,0,0,0,0,0,0,0,0,0,0,0,0,0,0,0,0,0,0,0,0,0,0,0,0,0,0,0,0,0,0,0,0,0,0,0,0,0,0,0,0,0,0,0,0,0,0,0,0,0,0,0],"id":16,"left_children":[1,3,5,7,9,11,13,15,17,19,21,23,25,27,29,-1,-1,31,33,35,37,39,41,43,45,-1,-1,47,49,51,53,-1,-1,-1,-1,-1,-1,-1,-1,-1,-1,-1,-1,-1,-1,-1,-1,-1,-1,-1,-1,-1,-1,-1,-1],"loss_changes":[3.199654E3,1.2698523E2,2.4860205E2,1.5707764E1,2.5866806E1,2.31969E1,6.989937E1,3.190918E-1,3.6238403E0,1.0437332E1,6.3499126E0,2.8205841E1,4.104004E-1,4.285031E1,2.1507568E1,0E0,0E0,1.4792786E0,2.0430603E0,4.9920273E0,4.775997E0,3.3498683E0,1.2064867E0,3.5189123E0,3.4663696E0,0E0,0E0,1.878396E1,7.3272324E0,4.15625E0,2.9356308E0,0E0,0E0,0E0,0E0,0E0,0E0,0E0,0E0,0E0,0E0,0E0,0E0,0E0,0E0,0E0,0E0,0E0,0E0,0E0,0E0,0E0,0E0,0E0,0E0],"parents":[2147483647,0,0,1,1,2,2,3,3,4,4,5,5,6,6,7,7,8,8,9,9,10,10,11,11,12,12,13,13,14,14,17,17,18,18,19,19,20,20,21,21,22,22,23,23,24,24,27,27,28,28,29,29,30,30],"right_children":[2,4,6,8,10,12,14,16,18,20,22,24,26,28,30,-1,-1,32,34,36,38,40,42,44,46,-1,-1,48,50,52,54,-1,-1,-1,-1,-1,-1,-1,-1,-1,-1,-1,-1,-1,-1,-1,-1,-1,-1,-1,-1,-1,-1,-1,-1],"split_conditions":[1.94E1,1.5E1,3.4943602E0,2.518E1,4.6E0,3E-1,2.28E1,5.6E1,1.28E1,3.0549E1,1.24E1,2.22E1,2.9368513E1,1E0,5.101443E0,-8.927181E-3,-1.4407401E-3,4.01E1,1.08E1,1.89E1,1.8E0,2.7022448E1,9.7E0,2.2072899E1,2.28E1,1.09347915E-2,1.8447522E-3,4.3472185E0,2.5E0,5E-1,3.0994E1,-7.857169E-3,-1.6396571E-4,-6.171633E-3,-1.8120905E-3,-6.0465E-3,-1.792144E-3,-3.470122E-3,2.3290395E-5,-1.5738662E-3,2.8495225E-3,1.6297627E-4,7.690632E-3,1.2775688E-3,5.2419603E-3,6.5380787E-3,9.559259E-3,2.59393E-3,-1.1346982E-3,4.1773897E-3,8.911531E-3,6.7170863E-3,9.390782E-3,-7.7573373E-4,3.8092046E-3],"split_indices":[2,2,5,1,0,0,2,0,2,1,6,2,4,0,5,0,0,0,0,2,6,4,0,4,2,0,0,5,6,0,1,0,0,0,0,0,0,0,0,0,0,0,0,0,0,0,0,0,0,0,0,0,0,0,0],"split_type":[0,0,0,0,0,0,0,0,0,0,0,0,0,0,0,0,0,0,0,0,0,0,0,0,0,0,0,0,0,0,0,0,0,0,0,0,0,0,0,0,0,0,0,0,0,0,0,0,0,0,0,0,0,0,0],"sum_hessian":[6.185E3,3.104E3,3.081E3,2.291E3,8.13E2,1.677E3,1.404E3,1.541E3,7.5E2,7.36E2,7.7E1,6.77E2,1E3,7.01E2,7.03E2,1.538E3,3E0,3.83E2,3.67E2,3.24E2,4.12E2,6.2E1,1.5E1,9.6E1,5.81E2,9.97E2,3E0,5.38E2,1.63E2,4.99E2,2.04E2,3.8E2,3E0,3.5E2,1.7E1,2.87E2,3.7E1,3.69E2,4.3E1,3.9E1,2.3E1,3E0,1.2E1,5.8E1,3.8E1,9.8E1,4.83E2,2.37E2,3.01E2,9.7E1,6.6E1,3.69E2,1.3E2,1.3E1,1.91E2],"tree_param":{"num_deleted":"0","num_feature":"9","num_nodes":"55","size_leaf_vector":"1"}},{"base_weights":[-8.908542E-3,-7.092225E-1,7.125184E-1,-8.563637E-1,-4.4201884E-1,4.214409E-1,9.599373E-1,-8.60334E-1,-1.702427E-1,-5.419465E-1,-1.8489307E-1,1.9043797E-1,6.509513E-1,9.886615E-1,2.823645E-1,-9.008834E-3,-7.802843E-1,-3.920315E-3,2.5823023E-3,-5.7128274E-1,-1.849043E-1,-2.7293396E-1,2.6710016E-1,6.895234E-2,5.649641E-1,7.9797465E-1,3.295341E-1,6.4826167E-1,1.0337815E0,1.4058401E-2,7.170712E-3,-7.81961E-3,-1.31295E-3,-6.9658766E-3,-5.0219046E-3,-2.6269495E-3,2.8572418E-3,-1.6903271E-3,-4.4600116E-3,3.4832014E-4,3.7268572E-3,-4.311481E-4,3.457767E-3,6.299754E-3,2.5940672E-4,8.472666E-3,5.972982E-3,2.213319E-3,5.2491967E-3,3.723821E-3,9.575181E-3,9.206881E-3,1.1024527E-2,-1.1704194E-3,2.9247622E-3],"categories":[],"categories_nodes":[],"categories_segments":[],"categories_sizes":[],"default_left":[0,0,0,0,0,0,0,0,0,0,0,0,0,0,0,0,0,0,0,0,0,0,0,0,0,0,0,0,0,0,0,0,0,0,0,0,0,0,0,0,0,0,0,0,0,0,0,0,0,0,0,0,0,0,0],"id":17,"left_children":[1,3,5,7,9,11,13,15,17,19,21,23,25,27,29,-1,31,-1,-1,33,35,37,39,41,43,45,47,49,51,53,-1,-1,-1,-1,-1,-1,-1,-1,-1,-1,-1,-1,-1,-1,-1,-1,-1,-1,-1,-1,-1,-1,-1,-1,-1],"loss_changes":[3.127345E3,1.2147119E2,2.1742212E2,4.6673584E0,2.8357727E1,7.405083E1,3.0473999E1,2.8319092E0,2.230101E0,7.859436E0,1.3218513E1,3.204651E1,3.1887787E1,2.0671143E1,8.507433E0,0E0,1.7123413E-1,0E0,0E0,4.572281E0,2.8991132E0,4.4706116E0,1.24317E0,1.6919228E1,5.9150734E0,2.0732422E0,4.206932E0,1.4977066E1,5.4555664E0,2.050238E0,0E0,0E0,0E0,0E0,0E0,0E0,0E0,0E0,0E0,0E0,0E0,0E0,0E0,0E0,0E0,0E0,0E0,0E0,0E0,0E0,0E0,0E0,0E0,0E0,0E0],"parents":[2147483647,0,0,1,1,2,2,3,3,4,4,5,5,6,6,7,7,8,8,9,9,10,10,11,11,12,12,13,13,14,14,16,16,19,19,20,20,21,21,22,22,23,23,24,24,25,25,26,26,27,27,28,28,29,29],"right_children":[2,4,6,8,10,12,14,16,18,20,22,24,26,28,30,-1,32,-1,-1,34,36,38,40,42,44,46,48,50,52,54,-1,-1,-1,-1,-1,-1,-1,-1,-1,-1,-1,-1,-1,-1,-1,-1,-1,-1,-1,-1,-1,-1,-1,-1,-1],"split_conditions":[1.94E1,2.7751E1,3.3919197E-1,1.89E1,1.78E1,2.819975E1,3.9926958E0,2.3304E1,2.4210903E1,7.2E0,1.5E0,3E-1,5.081348E0,2.17E1,2E-1,-9.008834E-3,2.8733274E1,-3.920315E-3,2.5823023E-3,1.39E1,2.8021349E1,4.8943596E0,2.1899986E1,2.33E1,5.2291207E0,3.9631E1,2.5E1,7.5E0,4E-1,2.1899986E1,7.170712E-3,-7.81961E-3,-1.31295E-3,-6.9658766E-3,-5.0219046E-3,-2.6269495E-3,2.8572418E-3,-1.6903271E-3,-4.4600116E-3,3.4832014E-4,3.7268572E-3,-4.311481E-4,3.457767E-3,6.299754E-3,2.5940672E-4,8.472666E-3,5.972982E-3,2.213319E-3,5.2491967E-3,3.723821E-3,9.575181E-3,9.206881E-3,1.1024527E-2,-1.1704194E-3,2.9247622E-3],"split_indices":[2,1,3,2,2,4,5,1,4,6,0,7,5,2,6,0,4,0,0,2,4,5,4,2,5,1,2,0,0,4,0,0,0,0,0,0,0,0,0,0,0,0,0,0,0,0,0,0,0,0,0,0,0,0,0],"split_type":[0,0,0,0,0,0,0,0,0,0,0,0,0,0,0,0,0,0,0,0,0,0,0,0,0,0,0,0,0,0,0,0,0,0,0,0,0,0,0,0,0,0,0,0,0,0,0,0,0,0,0,0,0,0,0],"sum_hessian":[6.18E3,3.136E3,3.044E3,2.015E3,1.121E3,1.405E3,1.639E3,2.002E3,1.3E1,8.03E2,3.18E2,7.05E2,7E2,1.57E3,6.9E1,1.294E3,7.08E2,9E0,4E0,7.39E2,6.4E1,2.68E2,5E1,5.37E2,1.68E2,4.75E2,2.25E2,1.93E2,1.377E3,4.6E1,2.3E1,7.05E2,3E0,2.46E2,4.93E2,5.7E1,7E0,1.74E2,9.4E1,1.8E1,3.2E1,3.85E2,1.52E2,1.49E2,1.9E1,3.68E2,1.07E2,1.52E2,7.3E1,1.08E2,8.5E1,5.48E2,8.29E2,3.3E1,1.3E1],"tree_param":{"num_deleted":"0","num_feature":"9","num_nodes":"55","size_leaf_vector":"1"}},{"base_weights":[6.5923203E-3,-7.0012474E-1,7.0975226E-1,-8.122019E-1,-3.6709365E-1,9.710938E-1,4.2702392E-1,-8.668418E-3,-6.681461E-1,-4.21447E-1,1.4785624E-1,7.459996E-1,1.040253E0,1.3375019E-1,5.808104E-1,-6.7352146E-1,8.8519667E-4,-5.56507E-1,-3.041668E-1,-2.8942665E-2,5.2446604E-1,4.1447094E-1,8.994661E-1,2.3745635E-1,1.046391E0,1.9944029E-2,7.29887E-1,6.965877E-1,2.8921506E-1,-7.5983033E-3,-5.8980742E-3,-5.696613E-3,2.194939E-3,-3.2639753E-3,1.69997E-3,-2.0569663E-3,2.8808452E-3,8.43964E-4,6.3038776E-3,7.634127E-4,4.8933276E-3,9.133971E-3,2.0987196E-3,-0E0,3.1220375E-3,9.851414E-3,1.130286E-2,-3.6999412E-4,6.4782775E-3,4.4921497E-3,8.7100025E-3,3.8314282E-3,7.823432E-3,4.703358E-4,4.1679274E-3],"categories":[],"categories_nodes":[],"categories_segments":[],"categories_sizes":[],"default_left":[0,0,0,0,0,0,0,0,0,0,0,0,0,0,0,0,0,0,0,0,0,0,0,0,0,0,0,0,0,0,0,0,0,0,0,0,0,0,0,0,0,0,0,0,0,0,0,0,0,0,0,0,0,0,0],"id":18,"left_children":[1,3,5,7,9,11,13,-1,15,17,19,21,23,25,27,29,-1,31,33,35,37,39,41,43,45,47,49,51,53,-1,-1,-1,-1,-1,-1,-1,-1,-1,-1,-1,-1,-1,-1,-1,-1,-1,-1,-1,-1,-1,-1,-1,-1,-1,-1],"loss_changes":[3.13268E3,1.1574158E2,2.3127502E2,1.5432251E1,2.2758316E1,2.144043E1,6.841016E1,0E0,3.073578E0,1.05673065E1,5.4521856E0,1.8508652E1,4.739502E0,3.5945267E1,3.2654205E1,2.421875E0,0E0,4.038986E0,4.5094795E0,3.5941644E0,8.744464E-1,3.224533E0,1.5326233E0,2.6748598E-1,5.361328E-1,1.6341675E1,1.278202E0,1.752298E1,8.908407E0,0E0,0E0,0E0,0E0,0E0,0E0,0E0,0E0,0E0,0E0,0E0,0E0,0E0,0E0,0E0,0E0,0E0,0E0,0E0,0E0,0E0,0E0,0E0,0E0,0E0,0E0],"parents":[2147483647,0,0,1,1,2,2,3,3,4,4,5,5,6,6,8,8,9,9,10,10,11,11,12,12,13,13,14,14,15,15,17,17,18,18,19,19,20,20,21,21,22,22,23,23,24,24,25,25,26,26,27,27,28,28],"right_children":[2,4,6,8,10,12,14,-1,16,18,20,22,24,26,28,30,-1,32,34,36,38,40,42,44,46,48,50,52,54,-1,-1,-1,-1,-1,-1,-1,-1,-1,-1,-1,-1,-1,-1,-1,-1,-1,-1,-1,-1,-1,-1,-1,-1,-1,-1],"split_conditions":[1.94E1,1.5E1,3.429723E0,2.6071E1,4.6E0,4.7629896E-1,2.22E1,-8.668418E-3,3.8493E1,3.0608E1,9.8E0,2.4210903E1,2.06E1,3.3E0,5.101443E0,1.28E1,8.8519667E-4,1.88E1,4.0609E1,1.83E1,9.2E0,2.11E1,2.9478027E1,2E-1,7.3E0,9.1E0,1.3E1,2.4114151E1,3.5064E1,-7.5983033E-3,-5.8980742E-3,-5.696613E-3,2.194939E-3,-3.2639753E-3,1.69997E-3,-2.0569663E-3,2.8808452E-3,8.43964E-4,6.3038776E-3,7.634127E-4,4.8933276E-3,9.133971E-3,2.0987196E-3,-0E0,3.1220375E-3,9.851414E-3,1.130286E-2,-3.6999412E-4,6.4782775E-3,4.4921497E-3,8.7100025E-3,3.8314282E-3,7.823432E-3,4.703358E-4,4.1679274E-3],"split_indices":[2,2,5,1,0,3,2,0,1,1,6,4,2,0,5,2,0,8,1,2,0,2,4,6,0,6,0,4,1,0,0,0,0,0,0,0,0,0,0,0,0,0,0,0,0,0,0,0,0,0,0,0,0,0,0],"split_type":[0,0,0,0,0,0,0,0,0,0,0,0,0,0,0,0,0,0,0,0,0,0,0,0,0,0,0,0,0,0,0,0,0,0,0,0,0,0,0,0,0,0,0,0,0,0,0,0,0,0,0,0,0,0,0],"sum_hessian":[6.294E3,3.139E3,3.155E3,2.343E3,7.96E2,1.633E3,1.522E3,1.68E3,6.63E2,7.21E2,7.5E1,3.98E2,1.235E3,5.27E2,9.95E2,6.59E2,4E0,3.26E2,3.95E2,5.4E1,2.1E1,1.32E2,2.66E2,1.1E1,1.224E3,4.47E2,8E1,7.07E2,2.88E2,3.04E2,3.55E2,3.22E2,4E0,3.79E2,1.6E1,3.6E1,1.8E1,6E0,1.5E1,2.6E1,1.06E2,2.59E2,7E0,4E0,7E0,7.45E2,4.79E2,4.14E2,3.3E1,3.4E1,4.6E1,1.58E2,5.49E2,1.02E2,1.86E2],"tree_param":{"num_deleted":"0","num_feature":"9","num_nodes":"55","size_leaf_vector":"1"}},{"base_weights":[1.6201805E-2,-6.7722213E-1,7.225431E-1,-8.3701396E-1,-4.066229E-1,9.773735E-1,4.2838138E-1,-8.863098E-3,-7.5557065E-1,-5.610986E-1,-2.4242745E-1,3.921581E-1,9.994803E-1,1.8874839E-1,6.5101206E-1,-7.602698E-1,-2.5425696E-1,-5.849372E-1,-1.11462705E-1,-3.2230398E-1,1.600888E-1,1.2175993E-1,7.4067973E-3,8.771927E-1,1.08113345E-2,5.2698486E-2,7.144905E-1,7.7164763E-1,3.333318E-1,-7.6175635E-3,-1.2915091E-3,3.9323617E-4,-3.5237027E-3,-5.916329E-3,-5.9718237E-4,-2.4752568E-3,1.155307E-3,-2.4609976E-3,-4.5545767E-3,-1.2937207E-4,3.840466E-3,2.56029E-4,2.1192345E-3,6.1247814E-3,9.556934E-3,2.293119E-3,-1.1663683E-3,7.7978615E-3,1.6765847E-3,6.7691063E-3,9.595625E-3,2.8986108E-4,4.0323604E-3],"categories":[],"categories_nodes":[],"categories_segments":[],"categories_sizes":[],"default_left":[0,0,0,0,0,0,0,0,0,0,0,0,0,0,0,0,0,0,0,0,0,0,0,0,0,0,0,0,0,0,0,0,0,0,0,0,0,0,0,0,0,0,0,0,0,0,0,0,0,0,0,0,0],"id":19,"left_children":[1,3,5,7,9,11,13,-1,15,17,19,21,23,25,27,29,31,33,35,37,39,41,-1,43,-1,45,47,49,51,-1,-1,-1,-1,-1,-1,-1,-1,-1,-1,-1,-1,-1,-1,-1,-1,-1,-1,-1,-1,-1,-1,-1,-1],"loss_changes":[3.079827E3,1.3537305E2,2.3127051E2,4.4768066E0,2.9372192E1,1.9441528E1,7.6925354E1,0E0,7.8131104E-1,6.121338E0,1.908289E1,5.9653616E0,1.1048706E1,5.0376244E1,2.742276E1,1.4605713E-1,5.326496E-1,1.7838287E0,1.2989433E0,4.3413734E0,3.9370062E0,3.392616E-1,0E0,1.07977295E1,0E0,1.7132113E1,4.4289093E0,6.219818E0,4.4937477E0,0E0,0E0,0E0,0E0,0E0,0E0,0E0,0E0,0E0,0E0,0E0,0E0,0E0,0E0,0E0,0E0,0E0,0E0,0E0,0E0,0E0,0E0,0E0,0E0],"parents":[2147483647,0,0,1,1,2,2,3,3,4,4,5,5,6,6,8,8,9,9,10,10,11,11,12,12,13,13,14,14,15,15,16,16,17,17,18,18,19,19,20,20,21,21,23,23,25,25,26,26,27,27,28,28],"right_children":[2,4,6,8,10,12,14,-1,16,18,20,22,24,26,28,30,32,34,36,38,40,42,-1,44,-1,46,48,50,52,-1,-1,-1,-1,-1,-1,-1,-1,-1,-1,-1,-1,-1,-1,-1,-1,-1,-1,-1,-1,-1,-1,-1,-1],"split_conditions":[2E1,2.7751E1,3.429723E0,2.277E1,1.61E1,2.11E1,2.28E1,-8.863098E-3,1.89E1,3.5356E1,1.1E0,2E-1,6E-1,2.9E0,5.101443E0,2.8788315E1,2.4886E1,3.47E1,5.2E0,4.7262044E0,1.05E1,2.1497744E1,7.4067973E-3,2.28E1,1.08113345E-2,4.4587235E0,5.5748825E0,5E-1,3.268E1,-7.6175635E-3,-1.2915091E-3,3.9323617E-4,-3.5237027E-3,-5.916329E-3,-5.9718237E-4,-2.4752568E-3,1.155307E-3,-2.4609976E-3,-4.5545767E-3,-1.2937207E-4,3.840466E-3,2.56029E-4,2.1192345E-3,6.1247814E-3,9.556934E-3,2.293119E-3,-1.1663683E-3,7.7978615E-3,1.6765847E-3,6.7691063E-3,9.595625E-3,2.8986108E-4,4.0323604E-3],"split_indices":[2,1,5,1,2,2,2,0,2,1,0,6,0,6,5,4,1,0,6,5,0,4,0,2,0,5,5,0,1,0,0,0,0,0,0,0,0,0,0,0,0,0,0,0,0,0,0,0,0,0,0,0,0],"split_type":[0,0,0,0,0,0,0,0,0,0,0,0,0,0,0,0,0,0,0,0,0,0,0,0,0,0,0,0,0,0,0,0,0,0,0,0,0,0,0,0,0,0,0,0,0,0,0,0,0,0,0,0,0],"sum_hessian":[6.278E3,3.168E3,3.11E3,1.985E3,1.183E3,1.66E3,1.45E3,1.205E3,7.8E2,6.03E2,5.8E2,6.4E1,1.596E3,7.03E2,7.47E2,7.7E2,1E1,5.71E2,3.2E1,4.85E2,9.5E1,4E1,2.4E1,6.63E2,9.33E2,5.63E2,1.4E2,5.36E2,2.11E2,7.67E2,3E0,3E0,7E0,5.63E2,8E0,2E1,1.2E1,3.18E2,1.67E2,5.6E1,3.9E1,2.3E1,1.7E1,1.62E2,5.01E2,2.75E2,2.88E2,1.23E2,1.7E1,3.72E2,1.64E2,4.1E1,1.7E2],"tree_param":{"num_deleted":"0","num_feature":"9","num_nodes":"53","size_leaf_vector":"1"}},{"base_weights":[-3.1971259E-3,-6.300306E-1,7.57864E-1,-7.753744E-1,-2.0096315E-1,9.7800046E-1,4.880768E-1,-8.367347E-1,-5.7261133E-1,-2.9214588E-1,2.9190132E-1,8.5386866E-1,1.05216345E-2,6.0277253E-1,1.9484885E-1,-8.720654E-3,-7.5740725E-1,-5.915463E-1,-5.2611116E-2,-4.4511548E-1,-1.2591767E-1,1.23473786E-1,7.6706326E-3,3.6855263E-1,8.9328694E-1,2.6100472E-1,7.545485E-1,-4.6308033E-2,3.9108703E-1,-8.115446E-3,-6.7203837E-3,-5.9700725E-3,1.09653854E-4,-2.1935143E-3,1.2432017E-3,-5.5193435E-3,-3.445169E-3,1.4507501E-4,-3.5306932E-3,-6.0462713E-4,2.8305347E-3,1.6935932E-3,5.958655E-3,6.3916934E-3,9.4133485E-3,1.2263424E-3,5.724908E-3,6.6375355E-3,9.386275E-3,-2.8269168E-3,7.405538E-4,5.1998545E-4,4.347844E-3],"categories":[],"categories_nodes":[],"categories_segments":[],"categories_sizes":[],"default_left":[0,0,0,0,0,0,0,0,0,0,0,0,0,0,0,0,0,0,0,0,0,0,0,0,0,0,0,0,0,0,0,0,0,0,0,0,0,0,0,0,0,0,0,0,0,0,0,0,0,0,0,0,0],"id":20,"left_children":[1,3,5,7,9,11,13,15,17,19,21,23,-1,25,27,-1,29,31,33,35,37,39,-1,41,43,45,47,49,51,-1,-1,-1,-1,-1,-1,-1,-1,-1,-1,-1,-1,-1,-1,-1,-1,-1,-1,-1,-1,-1,-1,-1,-1],"loss_changes":[2.963954E3,2.1159167E2,1.6411511E2,2.9102295E1,3.94799E1,9.494629E0,4.2079285E1,1.9746094E0,5.756607E0,1.8377567E1,1.0481574E1,9.763245E0,0E0,4.616922E1,1.7398357E1,0E0,6.869507E-2,2.0161743E0,9.4239485E-1,3.0537643E0,1.1542678E1,3.2779036E0,0E0,1.8639779E0,3.5978394E0,1.199239E1,7.2207336E0,4.9054646E0,2.8313713E0,0E0,0E0,0E0,0E0,0E0,0E0,0E0,0E0,0E0,0E0,0E0,0E0,0E0,0E0,0E0,0E0,0E0,0E0,0E0,0E0,0E0,0E0,0E0,0E0],"parents":[2147483647,0,0,1,1,2,2,3,3,4,4,5,5,6,6,7,7,8,8,9,9,10,10,11,11,13,13,14,14,16,16,17,17,18,18,19,19,20,20,21,21,23,23,24,24,25,25,26,26,27,27,28,28],"right_children":[2,4,6,8,10,12,14,16,18,20,22,24,-1,26,28,-1,30,32,34,36,38,40,-1,42,44,46,48,50,52,-1,-1,-1,-1,-1,-1,-1,-1,-1,-1,-1,-1,-1,-1,-1,-1,-1,-1,-1,-1,-1,-1,-1,-1],"split_conditions":[2.06E1,1.61E1,3.3439622E0,2.7751E1,1.8E0,2E-1,5.1315656E0,2.3456E1,3.5866E1,1.89E1,1.5E1,2.17E1,1.05216345E-2,2.4210903E1,2.8274622E1,-8.720654E-3,1.17E1,3.22E1,3.6E0,3.0549E1,4.6391644E0,3.3591E1,7.6706326E-3,2E-1,3.9362496E-1,2E-1,5E-1,2.22E1,3.268E1,-8.115446E-3,-6.7203837E-3,-5.9700725E-3,1.09653854E-4,-2.1935143E-3,1.2432017E-3,-5.5193435E-3,-3.445169E-3,1.4507501E-4,-3.5306932E-3,-6.0462713E-4,2.8305347E-3,1.6935932E-3,5.958655E-3,6.3916934E-3,9.4133485E-3,1.2263424E-3,5.724908E-3,6.6375355E-3,9.386275E-3,-2.8269168E-3,7.405538E-4,5.1998545E-4,4.347844E-3],"split_indices":[2,2,5,1,0,0,5,1,1,2,6,2,0,4,4,0,2,0,6,1,5,1,0,7,3,6,0,2,1,0,0,0,0,0,0,0,0,0,0,0,0,0,0,0,0,0,0,0,0,0,0,0,0],"split_type":[0,0,0,0,0,0,0,0,0,0,0,0,0,0,0,0,0,0,0,0,0,0,0,0,0,0,0,0,0,0,0,0,0,0,0,0,0,0,0,0,0,0,0,0,0,0,0,0,0,0,0,0,0],"sum_hessian":[6.203E3,3.402E3,2.801E3,2.538E3,8.64E2,1.535E3,1.266E3,1.936E3,6.02E2,7.31E2,1.33E2,5.98E2,9.37E2,9.06E2,3.6E2,1.304E3,6.32E2,5.8E2,2.2E1,3.76E2,3.55E2,1.03E2,3E1,4.9E1,5.49E2,2.83E2,6.23E2,1.63E2,1.97E2,3.6E2,2.72E2,5.75E2,5E0,1.1E1,1.1E1,1.71E2,2.05E2,2.22E2,1.33E2,4.9E1,5.4E1,3.1E1,1.8E1,9.9E1,4.5E2,2.01E2,8.2E1,4.33E2,1.9E2,5.3E1,1.1E2,2.4E1,1.73E2],"tree_param":{"num_deleted":"0","num_feature":"9","num_nodes":"53","size_leaf_vector":"1"}},{"base_weights":[-1.1248605E-2,-6.6888046E-1,6.8853027E-1,-7.92892E-1,-3.7746295E-1,9.27265E-1,4.187701E-1,-8.445603E-1,-6.6509044E-1,-4.9279794E-1,-1.63619E-1,7.1405876E-1,9.96394E-1,5.4308796E-1,1.05824135E-1,-7.91017E-1,-8.887976E-3,-6.7844635E-1,-2.1564605E-2,-5.2575374E-1,-5.198487E-3,-2.4102367E-1,3.3126083E-1,3.811245E-1,8.530453E-1,8.854945E-1,1.0516531E-2,2.0968795E-1,7.195774E-1,-9.283507E-2,3.1816208E-1,-7.931764E-3,-7.871346E-4,-7.4398764E-3,-6.096686E-3,-3.0858954E-3,3.810526E-3,-7.138902E-3,-4.8158593E-3,-1.2057836E-3,3.9714766E-3,-3.1118696E-3,-7.6640246E-4,1.4518527E-3,6.6342126E-3,8.566804E-4,4.683044E-3,8.649823E-3,1.5344137E-3,2.7521916E-3,9.292099E-3,1.4435552E-3,9.0312995E-3,6.3405503E-3,9.675185E-3,-2.070693E-3,9.91709E-4,-9.161607E-4,3.6652475E-3],"categories":[],"categories_nodes":[],"categories_segments":[],"categories_sizes":[],"default_left":[0,0,0,0,0,0,0,0,0,0,0,0,0,0,0,0,0,0,0,0,0,0,0,0,0,0,0,0,0,0,0,0,0,0,0,0,0,0,0,0,0,0,0,0,0,0,0,0,0,0,0,0,0,0,0,0,0,0,0],"id":21,"left_children":[1,3,5,7,9,11,13,15,17,19,21,23,25,27,29,31,-1,33,35,37,39,41,43,45,47,49,-1,51,53,55,57,-1,-1,-1,-1,-1,-1,-1,-1,-1,-1,-1,-1,-1,-1,-1,-1,-1,-1,-1,-1,-1,-1,-1,-1,-1,-1,-1,-1],"loss_changes":[2.8743894E3,1.1475452E2,1.9280176E2,1.1924316E1,2.347966E1,1.9868164E1,5.52816E1,7.336426E-2,5.641205E0,1.0024704E1,1.37206745E1,1.7223083E1,2.4794922E0,5.9288727E1,1.7591747E1,7.7578735E-1,0E0,5.673218E-1,2.7763608E0,3.0474854E0,2.3007991E0,3.3482113E0,2.4660845E0,3.0925312E0,1.6146088E0,1.0072571E1,0E0,1.55982275E1,1.0894745E1,4.87307E0,4.1788006E0,0E0,0E0,0E0,0E0,0E0,0E0,0E0,0E0,0E0,0E0,0E0,0E0,0E0,0E0,0E0,0E0,0E0,0E0,0E0,0E0,0E0,0E0,0E0,0E0,0E0,0E0,0E0,0E0],"parents":[2147483647,0,0,1,1,2,2,3,3,4,4,5,5,6,6,7,7,8,8,9,9,10,10,11,11,12,12,13,13,14,14,15,15,17,17,18,18,19,19,20,20,21,21,22,22,23,23,24,24,25,25,27,27,28,28,29,29,30,30],"right_children":[2,4,6,8,10,12,14,16,18,20,22,24,26,28,30,32,-1,34,36,38,40,42,44,46,48,50,-1,52,54,56,58,-1,-1,-1,-1,-1,-1,-1,-1,-1,-1,-1,-1,-1,-1,-1,-1,-1,-1,-1,-1,-1,-1,-1,-1,-1,-1,-1,-1],"split_conditions":[2E1,2.9003E1,3.429723E0,2.5032E1,1.78E1,4.7629896E-1,5.081348E0,2.9300117E-1,2.7194016E1,1.13E1,1.9E0,2.4025896E1,3E-1,2.4025896E1,2.33E1,1.89E1,-8.887976E-3,1.28E1,1.72E1,1.28E1,1.91E1,3.4105E1,2.67E1,2.11E1,2.9478027E1,2.22E1,1.0516531E-2,2.3E1,3E0,3.5496E1,3.1414E1,-7.931764E-3,-7.871346E-4,-7.4398764E-3,-6.096686E-3,-3.0858954E-3,3.810526E-3,-7.138902E-3,-4.8158593E-3,-1.2057836E-3,3.9714766E-3,-3.1118696E-3,-7.6640246E-4,1.4518527E-3,6.6342126E-3,8.566804E-4,4.683044E-3,8.649823E-3,1.5344137E-3,2.7521916E-3,9.292099E-3,1.4435552E-3,9.0312995E-3,6.3405503E-3,9.675185E-3,-2.070693E-3,9.91709E-4,-9.161607E-4,3.6652475E-3],"split_indices":[2,1,5,1,2,3,5,3,4,0,6,4,6,4,2,2,0,2,2,2,6,1,6,2,4,2,0,6,6,1,1,0,0,0,0,0,0,0,0,0,0,0,0,0,0,0,0,0,0,0,0,0,0,0,0,0,0,0,0],"split_type":[0,0,0,0,0,0,0,0,0,0,0,0,0,0,0,0,0,0,0,0,0,0,0,0,0,0,0,0,0,0,0,0,0,0,0,0,0,0,0,0,0,0,0,0,0,0,0,0,0,0,0,0,0,0,0,0,0,0,0],"sum_hessian":[6.236E3,3.215E3,3.021E3,2.249E3,9.66E2,1.596E3,1.425E3,1.581E3,6.68E2,6.23E2,3.43E2,4.05E2,1.191E3,1.017E3,4.08E2,7.59E2,8.22E2,6.54E2,1.4E1,5.83E2,4E1,2.99E2,4.4E1,1.25E2,2.8E2,4.25E2,7.66E2,3.56E2,6.61E2,2.12E2,1.96E2,7.56E2,3E0,3.09E2,3.45E2,9E0,5E0,9.6E1,4.87E2,3.4E1,6E0,2.06E2,9.3E1,3.3E1,1.1E1,3.1E1,9.4E1,2.74E2,6E0,3.1E1,3.94E2,3.31E2,2.5E1,5.05E2,1.56E2,1.33E2,7.9E1,2E1,1.76E2],"tree_param":{"num_deleted":"0","num_feature":"9","num_nodes":"59","size_leaf_vector":"1"}},{"base_weights":[1.8547039E-3,-6.707007E-1,6.836138E-1,-7.8647214E-1,-3.4522223E-1,3.992844E-1,9.106157E-1,-8.383916E-3,-6.511146E-1,-4.0444717E-1,1.6178048E-1,1.6441576E-1,6.2876326E-1,9.37292E-1,2.917841E-1,-7.501078E-1,-5.9032476E-1,-5.2800983E-1,-3.0073312E-1,4.5855534E-3,5.8894455E-1,-2.3609672E-2,3.5920545E-1,7.6880276E-1,3.091144E-1,6.393118E-1,9.8372537E-1,5.53857E-2,6.782183E-3,-7.5780153E-3,-4.8557567E-4,-5.9917276E-3,-2.8430724E-3,-5.419634E-3,3.6333613E-3,-3.2445411E-3,-2.5037236E-5,-1.8821354E-3,3.197107E-3,1.1058467E-3,6.804643E-3,1.3269705E-3,-2.3635603E-3,4.9257115E-3,1.289035E-3,2.5172425E-3,7.978927E-3,5.674297E-4,4.4232337E-3,3.8702658E-3,9.772522E-3,8.861163E-3,1.0428659E-2,-1.1260903E-3,3.1064143E-3],"categories":[],"categories_nodes":[],"categories_segments":[],"categories_sizes":[],"default_left":[0,0,0,0,0,0,0,0,0,0,0,0,0,0,0,0,0,0,0,0,0,0,0,0,0,0,0,0,0,0,0,0,0,0,0,0,0,0,0,0,0,0,0,0,0,0,0,0,0,0,0,0,0,0,0],"id":22,"left_children":[1,3,5,7,9,11,13,-1,15,17,19,21,23,25,27,29,31,33,35,37,39,41,43,45,47,49,51,53,-1,-1,-1,-1,-1,-1,-1,-1,-1,-1,-1,-1,-1,-1,-1,-1,-1,-1,-1,-1,-1,-1,-1,-1,-1,-1,-1],"loss_changes":[2.8428303E3,1.1613196E2,1.967799E2,1.3271118E1,2.5213951E1,7.356659E1,2.6705566E1,0E0,1.6236267E0,8.644859E0,5.9704657E0,2.5237627E1,2.9769806E1,1.9315308E1,6.864311E0,9.8760986E-1,2.3231506E-1,5.1316757E0,2.9061508E0,4.627684E0,5.9535503E-1,1.1938991E1,1.0001846E1,6.095825E0,7.2205906E0,1.8007942E1,3.2971191E0,2.5103157E0,0E0,0E0,0E0,0E0,0E0,0E0,0E0,0E0,0E0,0E0,0E0,0E0,0E0,0E0,0E0,0E0,0E0,0E0,0E0,0E0,0E0,0E0,0E0,0E0,0E0,0E0,0E0],"parents":[2147483647,0,0,1,1,2,2,3,3,4,4,5,5,6,6,8,8,9,9,10,10,11,11,12,12,13,13,14,14,15,15,16,16,17,17,18,18,19,19,20,20,21,21,22,22,23,23,24,24,25,25,26,26,27,27],"right_children":[2,4,6,8,10,12,14,-1,16,18,20,22,24,26,28,30,32,34,36,38,40,42,44,46,48,50,52,54,-1,-1,-1,-1,-1,-1,-1,-1,-1,-1,-1,-1,-1,-1,-1,-1,-1,-1,-1,-1,-1,-1,-1,-1,-1,-1,-1],"split_conditions":[1.94E1,1.5E1,3.3919197E-1,2.57E1,4.6E0,2.819975E1,4.059864E0,-8.383916E-3,1.22E1,3.0549E1,1.5E1,2.22E1,5.081348E0,2.22E1,2E-1,8.4986866E-1,1.3E1,2.58E1,5.1E0,2.6791536E1,9.2E0,4.4587235E0,4.6391644E0,2.06E1,2.28E1,1.19E1,3E-1,2.1899986E1,6.782183E-3,-7.5780153E-3,-4.8557567E-4,-5.9917276E-3,-2.8430724E-3,-5.419634E-3,3.6333613E-3,-3.2445411E-3,-2.5037236E-5,-1.8821354E-3,3.197107E-3,1.1058467E-3,6.804643E-3,1.3269705E-3,-2.3635603E-3,4.9257115E-3,1.289035E-3,2.5172425E-3,7.978927E-3,5.674297E-4,4.4232337E-3,3.8702658E-3,9.772522E-3,8.861163E-3,1.0428659E-2,-1.1260903E-3,3.1064143E-3],"split_indices":[2,2,3,1,0,4,5,0,2,1,6,2,5,2,6,3,6,8,7,4,0,5,5,2,2,0,6,4,0,0,0,0,0,0,0,0,0,0,0,0,0,0,0,0,0,0,0,0,0,0,0,0,0,0,0],"split_type":[0,0,0,0,0,0,0,0,0,0,0,0,0,0,0,0,0,0,0,0,0,0,0,0,0,0,0,0,0,0,0,0,0,0,0,0,0,0,0,0,0,0,0,0,0,0,0,0,0,0,0,0,0,0,0],"sum_hessian":[6.19E3,3.116E3,3.074E3,2.293E3,8.23E2,1.371E3,1.703E3,1.638E3,6.55E2,7.38E2,8.5E1,6.82E2,6.89E2,1.63E3,7.3E1,2.27E2,4.28E2,3.27E2,4.11E2,6.6E1,1.9E1,3.49E2,3.33E2,4.74E2,2.15E2,2.3E2,1.4E3,4.9E1,2.4E1,2.24E2,3E0,4.11E2,1.7E1,3.24E2,3E0,3.8E2,3.1E1,4.2E1,2.4E1,5E0,1.4E1,2.02E2,1.47E2,2.07E2,1.26E2,2.8E1,4.46E2,7.7E1,1.38E2,1.38E2,9.2E1,5.59E2,8.41E2,3.1E1,1.8E1],"tree_param":{"num_deleted":"0","num_feature":"9","num_nodes":"55","size_leaf_vector":"1"}},{"base_weights":[6.659989E-3,-6.606022E-1,6.83052E-1,-7.9178125E-1,-3.9318213E-1,9.1405094E-1,3.8068104E-1,-8.46058E-3,-7.028202E-1,-4.993748E-1,-1.7191087E-1,5.7280856E-1,9.637193E-1,1.601775E-1,5.9077734E-1,-7.146445E-1,-1.23093955E-1,-5.302911E-1,-1.3623285E-1,-2.8080347E-1,3.1075191E-1,1.9736946E-1,9.008861E-1,8.2465416E-1,1.0083352E0,4.1322652E-2,6.930146E-1,7.4857646E-1,4.1680813E-1,-8.128852E-3,-6.564979E-3,-4.087883E-3,3.6529456E-3,-6.9813943E-3,-4.8719468E-3,-2.2928629E-3,2.3130025E-3,-2.0019608E-3,-3.9559226E-3,1.6331683E-3,6.904677E-3,1.1141092E-3,5.2384795E-3,6.1134174E-3,1.0128584E-2,5.6102634E-3,9.029422E-3,1.9107464E-3,1.0095538E-2,-1.9106104E-4,5.201828E-3,4.1509517E-3,9.485722E-3,6.466215E-3,9.747846E-3,8.3229196E-4,5.4519926E-3],"categories":[],"categories_nodes":[],"categories_segments":[],"categories_sizes":[],"default_left":[0,0,0,0,0,0,0,0,0,0,0,0,0,0,0,0,0,0,0,0,0,0,0,0,0,0,0,0,0,0,0,0,0,0,0,0,0,0,0,0,0,0,0,0,0,0,0,0,0,0,0,0,0,0,0,0,0],"id":23,"left_children":[1,3,5,7,9,11,13,-1,15,17,19,21,23,25,27,29,31,33,35,37,39,41,43,45,47,49,51,53,55,-1,-1,-1,-1,-1,-1,-1,-1,-1,-1,-1,-1,-1,-1,-1,-1,-1,-1,-1,-1,-1,-1,-1,-1,-1,-1,-1,-1],"loss_changes":[2.8627932E3,1.1033533E2,2.1814978E2,7.1905518E0,2.4434357E1,2.7289307E1,6.3058685E1,0E0,5.2344666E0,7.588196E0,1.8933865E1,2.843953E1,5.263794E0,4.265798E1,1.7567368E1,1.8803406E0,3.9601765E0,2.9261017E0,2.4195824E0,2.2277584E0,3.101687E0,2.9561682E0,8.265991E-1,5.658844E0,5.9570312E-2,1.6275543E1,6.6308937E0,5.012039E0,1.4486137E1,0E0,0E0,0E0,0E0,0E0,0E0,0E0,0E0,0E0,0E0,0E0,0E0,0E0,0E0,0E0,0E0,0E0,0E0,0E0,0E0,0E0,0E0,0E0,0E0,0E0,0E0,0E0,0E0],"parents":[2147483647,0,0,1,1,2,2,3,3,4,4,5,5,6,6,8,8,9,9,10,10,11,11,12,12,13,13,14,14,15,15,16,16,17,17,18,18,19,19,20,20,21,21,22,22,23,23,24,24,25,25,26,26,27,27,28,28],"right_children":[2,4,6,8,10,12,14,-1,16,18,20,22,24,26,28,30,32,34,36,38,40,42,44,46,48,50,52,54,56,-1,-1,-1,-1,-1,-1,-1,-1,-1,-1,-1,-1,-1,-1,-1,-1,-1,-1,-1,-1,-1,-1,-1,-1,-1,-1,-1,-1],"split_conditions":[1.94E1,2.8402E1,3.6088574E0,1.11E1,1.72E1,2.17E1,2.28E1,-8.46058E-3,1.89E1,1E1,1.1E0,2.1E0,4.7629896E-1,2.4E0,4.6391644E0,2.277E1,2.4210903E1,1.28E1,3.9093E1,4.7262044E0,1.5E1,7.2E0,1.1E1,2.4025896E1,1.2562872E0,3.6E0,2.7768991E1,1.4E0,2.8106325E1,-8.128852E-3,-6.564979E-3,-4.087883E-3,3.6529456E-3,-6.9813943E-3,-4.8719468E-3,-2.2928629E-3,2.3130025E-3,-2.0019608E-3,-3.9559226E-3,1.6331683E-3,6.904677E-3,1.1141092E-3,5.2384795E-3,6.1134174E-3,1.0128584E-2,5.6102634E-3,9.029422E-3,1.9107464E-3,1.0095538E-2,-1.9106104E-4,5.201828E-3,4.1509517E-3,9.485722E-3,6.466215E-3,9.747846E-3,8.3229196E-4,5.4519926E-3],"split_indices":[2,1,5,2,2,2,2,0,2,0,0,0,3,6,5,1,4,2,1,5,6,7,0,4,4,0,4,0,4,0,0,0,0,0,0,0,0,0,0,0,0,0,0,0,0,0,0,0,0,0,0,0,0,0,0,0,0],"split_type":[0,0,0,0,0,0,0,0,0,0,0,0,0,0,0,0,0,0,0,0,0,0,0,0,0,0,0,0,0,0,0,0,0,0,0,0,0,0,0,0,0,0,0,0,0,0,0,0,0,0,0,0,0,0,0,0,0],"sum_hessian":[6.333E3,3.188E3,3.145E3,2.132E3,1.056E3,1.777E3,1.368E3,1.297E3,8.35E2,7.09E2,3.47E2,2.34E2,1.543E3,6.72E2,6.96E2,8.17E2,1.8E1,6.51E2,5.8E1,2.85E2,6.2E1,1.13E2,1.21E2,3.99E2,1.144E3,5.54E2,1.18E2,3.56E2,3.4E2,2.79E2,5.38E2,1.2E1,6E0,1.17E2,5.34E2,4.8E1,1E1,1.76E2,1.09E2,5E1,1.2E1,9.5E1,1.8E1,4.3E1,7.8E1,1.01E2,2.98E2,3E0,1.141E3,4.96E2,5.8E1,6.3E1,5.5E1,2.59E2,9.7E1,9.7E1,2.43E2],"tree_param":{"num_deleted":"0","num_feature":"9","num_nodes":"57","size_leaf_vector":"1"}},{"base_weights":[2.2468388E-3,-6.573253E-1,6.63547E-1,-7.771695E-1,-3.7518573E-1,3.7278813E-1,8.9806056E-1,-8.19043E-1,-6.532801E-1,-4.9175182E-1,-1.5872279E-1,1.4825909E-1,6.0295594E-1,9.2464036E-1,2.0596169E-1,-8.213718E-3,-2.0952961E-1,-7.23023E-1,-5.690334E-1,-5.0870883E-1,4.5050014E-2,-2.558776E-1,2.8966126E-1,3.3066568E-1,-4.111181E-2,7.387536E-1,3.256184E-1,6.180252E-1,9.630663E-1,-6.541974E-2,5.058685E-1,-3.513508E-3,8.6202903E-4,-7.2644376E-3,-1.3334708E-3,-5.8098207E-3,-1.5362882E-3,-5.1597483E-3,1.5997872E-3,-1.3972109E-3,1.9683496E-3,-1.7859001E-3,-3.9742286E-3,1.1162338E-3,6.579513E-3,1.3086073E-3,6.600864E-3,-2.019989E-3,1.2307991E-3,3.1851796E-3,7.6853004E-3,1.7430709E-3,4.699192E-3,3.215727E-3,8.592117E-3,9.022142E-3,1.0806652E-2,-2.1838497E-3,4.102572E-4,5.499278E-3,6.4707274E-5],"categories":[],"categories_nodes":[],"categories_segments":[],"categories_sizes":[],"default_left":[0,0,0,0,0,0,0,0,0,0,0,0,0,0,0,0,0,0,0,0,0,0,0,0,0,0,0,0,0,0,0,0,0,0,0,0,0,0,0,0,0,0,0,0,0,0,0,0,0,0,0,0,0,0,0,0,0,0,0,0,0],"id":24,"left_children":[1,3,5,7,9,11,13,15,17,19,21,23,25,27,29,-1,31,33,35,37,39,41,43,45,47,49,51,53,55,57,59,-1,-1,-1,-1,-1,-1,-1,-1,-1,-1,-1,-1,-1,-1,-1,-1,-1,-1,-1,-1,-1,-1,-1,-1,-1,-1,-1,-1,-1,-1],"loss_changes":[2.7121377E3,1.0368616E2,2.0991931E2,8.48645E0,2.3212555E1,7.157062E1,3.048352E1,1.3201904E0,1.1980286E0,5.6861877E0,1.500427E1,2.472573E1,2.4564453E1,1.6306152E1,5.9067526E0,0E0,7.231869E-1,2.6748657E-2,8.948746E-1,3.310089E0,7.882673E-1,2.6396961E0,3.6211438E0,2.3447453E1,9.483584E0,4.3858337E0,4.657099E0,1.2657494E1,5.3531494E0,7.3011357E-1,6.7467403E-1,0E0,0E0,0E0,0E0,0E0,0E0,0E0,0E0,0E0,0E0,0E0,0E0,0E0,0E0,0E0,0E0,0E0,0E0,0E0,0E0,0E0,0E0,0E0,0E0,0E0,0E0,0E0,0E0,0E0,0E0],"parents":[2147483647,0,0,1,1,2,2,3,3,4,4,5,5,6,6,7,7,8,8,9,9,10,10,11,11,12,12,13,13,14,14,16,16,17,17,18,18,19,19,20,20,21,21,22,22,23,23,24,24,25,25,26,26,27,27,28,28,29,29,30,30],"right_children":[2,4,6,8,10,12,14,16,18,20,22,24,26,28,30,-1,32,34,36,38,40,42,44,46,48,50,52,54,56,58,60,-1,-1,-1,-1,-1,-1,-1,-1,-1,-1,-1,-1,-1,-1,-1,-1,-1,-1,-1,-1,-1,-1,-1,-1,-1,-1,-1,-1,-1,-1],"split_conditions":[1.94E1,2.8619E1,3.3919197E-1,2.518E1,1.72E1,2.819975E1,4.059864E0,2.6791536E1,1.28E1,3.8493E1,1.1E0,4.3138733E0,5.081348E0,2.17E1,2.2072899E1,-8.213718E-3,1.83E1,3.6E1,7.6E0,3E1,1.6E0,4.8943596E0,1.81E1,2.4025896E1,2.22E1,2.06E1,2.39E1,8E-1,9.7E0,3.1733E1,3.8178E1,-3.513508E-3,8.6202903E-4,-7.2644376E-3,-1.3334708E-3,-5.8098207E-3,-1.5362882E-3,-5.1597483E-3,1.5997872E-3,-1.3972109E-3,1.9683496E-3,-1.7859001E-3,-3.9742286E-3,1.1162338E-3,6.579513E-3,1.3086073E-3,6.600864E-3,-2.019989E-3,1.2307991E-3,3.1851796E-3,7.6853004E-3,1.7430709E-3,4.699192E-3,3.215727E-3,8.592117E-3,9.022142E-3,1.0806652E-2,-2.1838497E-3,4.102572E-4,5.499278E-3,6.4707274E-5],"split_indices":[2,1,3,1,2,4,5,4,2,1,0,5,5,2,4,0,2,6,0,0,0,5,0,4,2,2,2,6,0,1,1,0,0,0,0,0,0,0,0,0,0,0,0,0,0,0,0,0,0,0,0,0,0,0,0,0,0,0,0,0,0],"split_type":[0,0,0,0,0,0,0,0,0,0,0,0,0,0,0,0,0,0,0,0,0,0,0,0,0,0,0,0,0,0,0,0,0,0,0,0,0,0,0,0,0,0,0,0,0,0,0,0,0,0,0,0,0,0,0,0,0,0,0,0,0],"sum_hessian":[6.208E3,3.108E3,3.1E3,2.175E3,9.33E2,1.39E3,1.71E3,1.604E3,5.71E2,6.02E2,3.31E2,7.08E2,6.82E2,1.645E3,6.5E1,1.596E3,8E0,2.91E2,2.8E2,5.84E2,1.8E1,2.74E2,5.7E1,3.59E2,3.49E2,4.52E2,2.3E2,1.93E2,1.452E3,3.6E1,2.9E1,5E0,3E0,2.88E2,3E0,2.7E2,1E1,5.79E2,5E0,8E0,1E1,1.85E2,8.9E1,4.3E1,1.4E1,2.28E2,1.31E2,1.76E2,1.73E2,3.4E1,4.18E2,1.18E2,1.12E2,9.2E1,1.01E2,9.86E2,4.66E2,1.3E1,2.3E1,2.6E1,3E0],"tree_param":{"num_deleted":"0","num_feature":"9","num_nodes":"61","size_leaf_vector":"1"}},{"base_weights":[2.5242806E-4,-6.553286E-1,6.6495E-1,-7.588809E-1,-3.4576058E-1,4.0460062E-1,9.1618234E-1,-8.0162996E-1,-6.006766E-1,-3.9377108E-1,9.624404E-2,1.1551123E-1,5.4975706E-1,9.356607E-1,2.4042954E-1,-8.033036E-1,-8.420929E-4,-6.069583E-1,8.2772184E-4,-5.276399E-1,-2.819527E-1,-3.9193396E-2,3.4086782E-1,4.1892212E-2,7.7071544E-3,6.515108E-1,2.6645818E-1,7.9632956E-1,1.0030117E-2,2.8638752E-2,6.4970558E-3,-8.432768E-3,-7.524719E-3,-6.1496855E-3,-1.5771225E-3,-5.604915E-3,-2.316949E-3,-3.1625652E-3,6.724411E-4,1.3143847E-3,-2.5682854E-3,-4.1599313E-4,4.1155494E-3,1.5796013E-3,-2.27275E-3,2.7337107E-3,7.4660103E-3,-6.9467386E-4,3.2813703E-3,5.704073E-3,9.227171E-3,-1.3908225E-3,2.9247834E-3],"categories":[],"categories_nodes":[],"categories_segments":[],"categories_sizes":[],"default_left":[0,0,0,0,0,0,0,0,0,0,0,0,0,0,0,0,0,0,0,0,0,0,0,0,0,0,0,0,0,0,0,0,0,0,0,0,0,0,0,0,0,0,0,0,0,0,0,0,0,0,0,0,0],"id":25,"left_children":[1,3,5,7,9,11,13,15,17,19,21,23,25,27,29,31,-1,33,-1,35,37,39,41,43,-1,45,47,49,-1,51,-1,-1,-1,-1,-1,-1,-1,-1,-1,-1,-1,-1,-1,-1,-1,-1,-1,-1,-1,-1,-1,-1,-1],"loss_changes":[2.7230847E3,9.9427246E1,2.0097595E2,1.3365845E1,1.7153496E1,6.3945496E1,1.9488647E1,1.7786865E0,2.54039E0,9.967834E0,2.813726E0,2.4791529E1,2.8414642E1,1.0174805E1,4.2598567E0,3.9013672E-1,0E0,1.298233E0,0E0,2.402031E0,4.970661E0,2.2980478E0,9.3366265E-1,1.4918643E1,0E0,2.5701752E1,5.8998623E0,1.215271E1,0E0,1.9445386E0,0E0,0E0,0E0,0E0,0E0,0E0,0E0,0E0,0E0,0E0,0E0,0E0,0E0,0E0,0E0,0E0,0E0,0E0,0E0,0E0,0E0,0E0,0E0],"parents":[2147483647,0,0,1,1,2,2,3,3,4,4,5,5,6,6,7,7,8,8,9,9,10,10,11,11,12,12,13,13,14,14,15,15,17,17,19,19,20,20,21,21,22,22,23,23,25,25,26,26,27,27,29,29],"right_children":[2,4,6,8,10,12,14,16,18,20,22,24,26,28,30,32,-1,34,-1,36,38,40,42,44,-1,46,48,50,-1,52,-1,-1,-1,-1,-1,-1,-1,-1,-1,-1,-1,-1,-1,-1,-1,-1,-1,-1,-1,-1,-1,-1,-1],"split_conditions":[1.94E1,1.5E1,3.9362496E-1,1.28E1,4.5E0,2.22E1,4.059864E0,6.35E1,3.6344E1,3.0549E1,2.6791536E1,1.02E1,5.101443E0,2.28E1,2.1E0,1E1,-8.420929E-4,1.3E1,8.2772184E-4,1.89E1,7.6E0,4.2743273E0,9.2E0,4.911004E0,7.7071544E-3,2.4386679E1,3.1524E1,2.1E0,1.0030117E-2,2.2831703E1,6.4970558E-3,-8.432768E-3,-7.524719E-3,-6.1496855E-3,-1.5771225E-3,-5.604915E-3,-2.316949E-3,-3.1625652E-3,6.724411E-4,1.3143847E-3,-2.5682854E-3,-4.1599313E-4,4.1155494E-3,1.5796013E-3,-2.27275E-3,2.7337107E-3,7.4660103E-3,-6.9467386E-4,3.2813703E-3,5.704073E-3,9.227171E-3,-1.3908225E-3,2.9247834E-3],"split_indices":[2,2,3,2,0,2,5,0,1,1,4,0,5,2,0,2,0,6,0,2,7,5,0,5,0,4,1,0,0,4,0,0,0,0,0,0,0,0,0,0,0,0,0,0,0,0,0,0,0,0,0,0,0],"split_type":[0,0,0,0,0,0,0,0,0,0,0,0,0,0,0,0,0,0,0,0,0,0,0,0,0,0,0,0,0,0,0,0,0,0,0,0,0,0,0,0,0,0,0,0,0,0,0,0,0,0,0,0,0],"sum_hessian":[6.239E3,3.141E3,3.098E3,2.348E3,7.93E2,1.528E3,1.57E3,1.832E3,5.16E2,7.16E2,7.7E1,5.14E2,1.014E3,1.524E3,4.6E1,1.827E3,5E0,5.12E2,4E0,3.17E2,3.99E2,5.2E1,2.5E1,4.67E2,4.7E1,7.41E2,2.73E2,5.18E2,1.006E3,3.4E1,1.2E1,9.78E2,8.49E2,5.01E2,1.1E1,2.81E2,3.6E1,3.64E2,3.5E1,3E1,2.2E1,4E0,2.1E1,3.28E2,1.39E2,1.53E2,5.88E2,4.2E1,2.31E2,1.96E2,3.22E2,2.2E1,1.2E1],"tree_param":{"num_deleted":"0","num_feature":"9","num_nodes":"53","size_leaf_vector":"1"}},{"base_weights":[-1.9832645E-3,-6.388646E-1,6.678033E-1,-7.563303E-1,-3.523326E-1,9.0377307E-1,3.9956102E-1,-8.051775E-1,-6.3799435E-1,-4.5696875E-1,-1.4667994E-1,3.27609E-1,9.237881E-1,1.748839E-1,6.048354E-1,-8.061581E-3,-9.614043E-4,-6.482269E-1,-2.3420878E-1,-4.8499778E-1,-2.2789521E-2,-2.1374413E-1,1.9156869E-1,3.4152325E-2,6.979876E-1,8.078217E-1,9.967408E-3,6.426026E-2,6.8646526E-1,7.157612E-1,3.2517964E-1,-7.3581166E-3,-5.849043E-3,-3.5254892E-3,6.756456E-4,-4.928827E-3,1.3853024E-3,-2.6507366E-3,1.8275658E-3,-2.511135E-3,1.2746672E-3,1.1585569E-3,4.719206E-3,-7.3408056E-4,1.4338538E-3,7.40102E-3,1.2290219E-3,5.398584E-3,8.83338E-3,2.1640765E-3,-1.2137968E-3,7.357397E-3,-1.9666524E-5,-3.0632264E-3,7.246925E-3,-7.579666E-5,3.8641875E-3],"categories":[],"categories_nodes":[],"categories_segments":[],"categories_sizes":[],"default_left":[0,0,0,0,0,0,0,0,0,0,0,0,0,0,0,0,0,0,0,0,0,0,0,0,0,0,0,0,0,0,0,0,0,0,0,0,0,0,0,0,0,0,0,0,0,0,0,0,0,0,0,0,0,0,0,0,0],"id":26,"left_children":[1,3,5,7,9,11,13,15,17,19,21,23,25,27,29,-1,-1,31,33,35,37,39,41,43,45,47,-1,49,51,53,55,-1,-1,-1,-1,-1,-1,-1,-1,-1,-1,-1,-1,-1,-1,-1,-1,-1,-1,-1,-1,-1,-1,-1,-1,-1,-1],"loss_changes":[2.65713E3,1.0602576E2,1.9023413E2,1.035083E1,1.9789032E1,1.6939453E1,6.53454E1,6.208496E-1,1.9828796E0,7.426956E0,7.556687E0,6.546381E0,8.940552E0,3.875353E1,2.1842804E1,0E0,0E0,1.4042053E0,1.0403951E0,3.2332916E0,2.3918755E0,3.653387E0,8.565209E-1,5.29592E-1,1.1282253E-1,1.0161011E1,0E0,1.6325016E1,4.2191086E0,5.980774E0,4.5560417E0,0E0,0E0,0E0,0E0,0E0,0E0,0E0,0E0,0E0,0E0,0E0,0E0,0E0,0E0,0E0,0E0,0E0,0E0,0E0,0E0,0E0,0E0,0E0,0E0,0E0,0E0],"parents":[2147483647,0,0,1,1,2,2,3,3,4,4,5,5,6,6,7,7,8,8,9,9,10,10,11,11,12,12,13,13,14,14,17,17,18,18,19,19,20,20,21,21,22,22,23,23,24,24,25,25,27,27,28,28,29,29,30,30],"right_children":[2,4,6,8,10,12,14,16,18,20,22,24,26,28,30,-1,-1,32,34,36,38,40,42,44,46,48,-1,50,52,54,56,-1,-1,-1,-1,-1,-1,-1,-1,-1,-1,-1,-1,-1,-1,-1,-1,-1,-1,-1,-1,-1,-1,-1,-1,-1,-1],"split_conditions":[2E1,2.9078E1,3.429723E0,1.22E1,1.78E1,2.11E1,2.28E1,5.5E1,1.89E1,1.19E1,1.5E0,6E-1,2E-1,3.3E0,5.101443E0,-8.061581E-3,-9.614043E-4,2.4886E1,2.4210903E1,3.25E1,1.6E0,1.1E0,2.67E1,4.1452417E-1,3.1234114E0,2.28E1,9.967408E-3,4.601857E0,5.5748825E0,2.518E1,3.2772E1,-7.3581166E-3,-5.849043E-3,-3.5254892E-3,6.756456E-4,-4.928827E-3,1.3853024E-3,-2.6507366E-3,1.8275658E-3,-2.511135E-3,1.2746672E-3,1.1585569E-3,4.719206E-3,-7.3408056E-4,1.4338538E-3,7.40102E-3,1.2290219E-3,5.398584E-3,8.83338E-3,2.1640765E-3,-1.2137968E-3,7.357397E-3,-1.9666524E-5,-3.0632264E-3,7.246925E-3,-7.579666E-5,3.8641875E-3],"split_indices":[2,1,5,2,2,2,2,0,2,0,6,0,0,0,5,0,0,1,4,6,6,0,6,3,5,2,0,5,5,1,1,0,0,0,0,0,0,0,0,0,0,0,0,0,0,0,0,0,0,0,0,0,0,0,0,0,0],"split_type":[0,0,0,0,0,0,0,0,0,0,0,0,0,0,0,0,0,0,0,0,0,0,0,0,0,0,0,0,0,0,0,0,0,0,0,0,0,0,0,0,0,0,0,0,0,0,0,0,0,0,0,0,0,0,0,0,0],"sum_hessian":[6.219E3,3.188E3,3.031E3,2.255E3,9.33E2,1.606E3,1.425E3,1.575E3,6.8E2,6.14E2,3.19E2,5.7E1,1.549E3,6.85E2,7.4E2,1.572E3,3E0,6.6E2,2E1,5.76E2,3.8E1,2.68E2,5.1E1,3.5E1,2.2E1,6.22E2,9.27E2,5.68E2,1.17E2,5.24E2,2.16E2,2.54E2,4.06E2,1.4E1,6E0,5.7E2,6E0,1.7E1,2.1E1,2.43E2,2.5E1,4.6E1,5E0,1.8E1,1.7E1,1.9E1,3E0,1.46E2,4.76E2,3.12E2,2.56E2,1.09E2,8E0,3E0,5.21E2,3.4E1,1.82E2],"tree_param":{"num_deleted":"0","num_feature":"9","num_nodes":"57","size_leaf_vector":"1"}},{"base_weights":[-3.184068E-3,-6.288388E-1,6.567592E-1,-7.413117E-1,-3.2403138E-1,3.998925E-1,9.0321726E-1,-7.9304856E-1,-6.036393E-1,-3.7552938E-1,1.7853986E-1,1.1390853E-1,5.219391E-1,9.7292227E-1,7.295931E-1,-7.4068317E-3,-8.3828163E-1,-6.207601E-1,-2.8147852E-1,-4.4642162E-1,-1.8857923E-1,-3.3298086E-2,5.3772426E-1,3.7135016E-2,7.953218E-1,6.377401E-1,2.2870263E-1,5.147716E-1,9.789474E-3,3.894433E-1,7.9884994E-1,-8.442885E-3,-3.4147294E-3,-7.195331E-3,-5.6327507E-3,-3.6237973E-3,1.5668529E-3,-6.437741E-3,-3.9325184E-3,-2.1772904E-3,4.7899387E-3,2.2483398E-3,-3.7501159E-3,6.1243162E-3,1.4969877E-3,1.8502423E-3,-1.5096997E-3,2.6040704E-3,9.049638E-3,2.8036635E-3,7.2474102E-3,2.2120171E-4,3.530637E-3,4.207658E-4,7.189585E-3,1.8516296E-3,5.6638815E-3,8.298218E-3,2.7425727E-3],"categories":[],"categories_nodes":[],"categories_segments":[],"categories_sizes":[],"default_left":[0,0,0,0,0,0,0,0,0,0,0,0,0,0,0,0,0,0,0,0,0,0,0,0,0,0,0,0,0,0,0,0,0,0,0,0,0,0,0,0,0,0,0,0,0,0,0,0,0,0,0,0,0,0,0,0,0,0,0],"id":27,"left_children":[1,3,5,7,9,11,13,15,17,19,21,23,25,27,29,-1,31,33,35,37,39,41,43,45,47,49,51,53,-1,55,57,-1,-1,-1,-1,-1,-1,-1,-1,-1,-1,-1,-1,-1,-1,-1,-1,-1,-1,-1,-1,-1,-1,-1,-1,-1,-1,-1,-1],"loss_changes":[2.5987693E3,1.0945947E2,1.9197266E2,1.4247803E1,2.3130577E1,5.2308365E1,1.5148315E1,7.548828E-1,2.70401E0,1.0118225E1,6.607524E0,2.3729122E1,3.5042755E1,3.5913086E-1,9.327087E0,0E0,1.0391846E0,1.4053345E0,1.8287303E0,4.6745605E0,4.951583E0,5.5526137E0,3.9301395E-1,1.1743469E1,1.4030304E0,2.2326782E1,7.8105145E0,2.1855931E0,0E0,2.6175003E0,4.9745026E0,0E0,0E0,0E0,0E0,0E0,0E0,0E0,0E0,0E0,0E0,0E0,0E0,0E0,0E0,0E0,0E0,0E0,0E0,0E0,0E0,0E0,0E0,0E0,0E0,0E0,0E0,0E0,0E0],"parents":[2147483647,0,0,1,1,2,2,3,3,4,4,5,5,6,6,7,7,8,8,9,9,10,10,11,11,12,12,13,13,14,14,16,16,17,17,18,18,19,19,20,20,21,21,22,22,23,23,24,24,25,25,26,26,27,27,29,29,30,30],"right_children":[2,4,6,8,10,12,14,16,18,20,22,24,26,28,30,-1,32,34,36,38,40,42,44,46,48,50,52,54,-1,56,58,-1,-1,-1,-1,-1,-1,-1,-1,-1,-1,-1,-1,-1,-1,-1,-1,-1,-1,-1,-1,-1,-1,-1,-1,-1,-1,-1,-1],"split_conditions":[2E1,1.5E1,3.9744812E-1,2.6071E1,4.6E0,2.17E1,2.7250166E0,2.9300117E-1,9.7E0,1.83E1,2.7022448E1,1.13E1,5.101443E0,2.11E1,2.17E1,-7.4068317E-3,3.6E1,1.22E1,3.3361E1,2.7577E1,2E1,3.9816628E0,3.8344E1,4.481423E0,2.3052937E1,2.3924982E1,2.8274622E1,3.2E0,9.789474E-3,2E-1,4.4298196E0,-8.442885E-3,-3.4147294E-3,-7.195331E-3,-5.6327507E-3,-3.6237973E-3,1.5668529E-3,-6.437741E-3,-3.9325184E-3,-2.1772904E-3,4.7899387E-3,2.2483398E-3,-3.7501159E-3,6.1243162E-3,1.4969877E-3,1.8502423E-3,-1.5096997E-3,2.6040704E-3,9.049638E-3,2.8036635E-3,7.2474102E-3,2.2120171E-4,3.530637E-3,4.207658E-4,7.189585E-3,1.8516296E-3,5.6638815E-3,8.298218E-3,2.7425727E-3],"split_indices":[2,2,3,1,0,2,5,3,0,2,4,6,5,2,2,0,0,2,1,1,8,5,1,5,4,4,4,0,0,7,5,0,0,0,0,0,0,0,0,0,0,0,0,0,0,0,0,0,0,0,0,0,0,0,0,0,0,0,0],"split_type":[0,0,0,0,0,0,0,0,0,0,0,0,0,0,0,0,0,0,0,0,0,0,0,0,0,0,0,0,0,0,0,0,0,0,0,0,0,0,0,0,0,0,0,0,0,0,0,0,0,0,0,0,0,0,0,0,0,0,0],"sum_hessian":[6.284E3,3.226E3,3.058E3,2.351E3,8.75E2,1.504E3,1.554E3,1.691E3,6.6E2,7.95E2,8E1,4.53E2,1.051E3,1.092E3,4.62E2,8.25E2,8.66E2,6.22E2,3.8E1,5.71E2,2.24E2,5.3E1,2.7E1,4.12E2,4.1E1,7.49E2,3.02E2,2E1,1.072E3,8.4E1,3.78E2,8.52E2,1.4E1,2.07E2,4.15E2,3.3E1,5E0,1.09E2,4.62E2,2.18E2,6E0,3.1E1,2.2E1,2E1,7E0,2.31E2,1.81E2,1E1,3.1E1,1.51E2,5.98E2,1.16E2,1.86E2,8E0,1.2E1,4.4E1,4E1,3.54E2,2.4E1],"tree_param":{"num_deleted":"0","num_feature":"9","num_nodes":"59","size_leaf_vector":"1"}},{"base_weights":[-2.283611E-3,-6.3155943E-1,6.3671666E-1,-7.621952E-1,-3.954749E-1,8.759763E-1,3.8130674E-1,-7.659889E-1,-8.426562E-2,-5.310159E-1,-2.452065E-1,3.0675986E-1,9.022043E-1,1.8178341E-1,5.87844E-1,-8.052404E-3,-6.8456507E-3,3.9051084E-3,-3.3261445E-3,-5.46352E-1,6.839071E-2,-2.934376E-1,3.6611885E-1,5.182812E-2,6.261086E-1,7.941383E-1,9.946454E-3,7.139868E-2,6.740993E-1,6.993681E-1,3.0890614E-1,-5.556347E-3,-1.2274112E-3,-2.4536165E-4,1.4115479E-3,-2.125403E-3,-4.2766947E-3,5.217472E-3,8.1503025E-4,-2.1330487E-4,1.5100698E-3,1.6012663E-3,7.348479E-3,5.6894766E-3,8.601956E-3,2.4855873E-3,-8.4301055E-4,4.620875E-3,9.053653E-3,3.3402564E-3,7.5847404E-3,9.934171E-4,4.2910594E-3],"categories":[],"categories_nodes":[],"categories_segments":[],"categories_sizes":[],"default_left":[0,0,0,0,0,0,0,0,0,0,0,0,0,0,0,0,0,0,0,0,0,0,0,0,0,0,0,0,0,0,0,0,0,0,0,0,0,0,0,0,0,0,0,0,0,0,0,0,0,0,0,0,0],"id":28,"left_children":[1,3,5,7,9,11,13,15,17,19,21,23,25,27,29,-1,-1,-1,-1,31,33,35,37,39,41,43,-1,45,47,49,51,-1,-1,-1,-1,-1,-1,-1,-1,-1,-1,-1,-1,-1,-1,-1,-1,-1,-1,-1,-1,-1,-1],"loss_changes":[2.5099539E3,9.537244E1,1.8745972E2,4.784668E0,2.2307007E1,2.230774E1,6.1490692E1,3.5092773E0,2.6481311E0,5.658264E0,1.662865E1,6.120102E0,1.107605E1,4.174718E1,2.1776901E1,0E0,0E0,0E0,0E0,1.8561096E0,1.5745188E-1,5.008728E0,1.5874162E0,3.8460654E-1,1.0449581E0,8.224548E0,0E0,1.7719643E1,4.6848526E0,9.917618E0,5.275728E0,0E0,0E0,0E0,0E0,0E0,0E0,0E0,0E0,0E0,0E0,0E0,0E0,0E0,0E0,0E0,0E0,0E0,0E0,0E0,0E0,0E0,0E0],"parents":[2147483647,0,0,1,1,2,2,3,3,4,4,5,5,6,6,7,7,8,8,9,9,10,10,11,11,12,12,13,13,14,14,19,19,20,20,21,21,22,22,23,23,24,24,25,25,27,27,28,28,29,29,30,30],"right_children":[2,4,6,8,10,12,14,16,18,20,22,24,26,28,30,-1,-1,-1,-1,32,34,36,38,40,42,44,-1,46,48,50,52,-1,-1,-1,-1,-1,-1,-1,-1,-1,-1,-1,-1,-1,-1,-1,-1,-1,-1,-1,-1,-1,-1],"split_conditions":[1.94E1,2.7662E1,3.429723E0,1.89E1,1.61E1,2.11E1,2.28E1,2.3456E1,3.8881044E0,3.8493E1,9.7E0,6E-1,2E0,2.9E0,5.101443E0,-8.052404E-3,-6.8456507E-3,3.9051084E-3,-3.3261445E-3,2.25E1,1.05E1,4.7430744E0,4.037004E0,4.305216E-1,2.0755571E1,2.28E1,9.946454E-3,4.3472185E0,2.8E0,2.4025896E1,2.8595251E1,-5.556347E-3,-1.2274112E-3,-2.4536165E-4,1.4115479E-3,-2.125403E-3,-4.2766947E-3,5.217472E-3,8.1503025E-4,-2.1330487E-4,1.5100698E-3,1.6012663E-3,7.348479E-3,5.6894766E-3,8.601956E-3,2.4855873E-3,-8.4301055E-4,4.620875E-3,9.053653E-3,3.3402564E-3,7.5847404E-3,9.934171E-4,4.2910594E-3],"split_indices":[2,1,5,2,2,2,2,1,5,1,0,0,0,6,5,0,0,0,0,0,6,5,5,3,4,2,0,5,0,4,4,0,0,0,0,0,0,0,0,0,0,0,0,0,0,0,0,0,0,0,0,0,0],"split_type":[0,0,0,0,0,0,0,0,0,0,0,0,0,0,0,0,0,0,0,0,0,0,0,0,0,0,0,0,0,0,0,0,0,0,0,0,0,0,0,0,0,0,0,0,0,0,0,0,0,0,0,0,0],"sum_hessian":[6.232E3,3.14E3,3.092E3,2.014E3,1.126E3,1.59E3,1.502E3,2.002E3,1.2E1,5.85E2,5.41E2,7.3E1,1.517E3,7.69E2,7.33E2,1.32E3,6.82E2,3E0,9E0,5.71E2,1.4E1,5.04E2,3.7E1,4.4E1,2.9E1,7.22E2,7.95E2,6.33E2,1.36E2,5.18E2,2.15E2,5.57E2,1.4E1,7E0,7E0,3.23E2,1.81E2,2.1E1,1.6E1,2.7E1,1.7E1,8E0,2.1E1,1.75E2,5.47E2,2.95E2,3.38E2,7.9E1,5.7E1,7.7E1,4.41E2,8.2E1,1.33E2],"tree_param":{"num_deleted":"0","num_feature":"9","num_nodes":"53","size_leaf_vector":"1"}},{"base_weights":[-2.0303028E-3,-6.1884856E-1,6.538567E-1,-7.258637E-1,-3.1595176E-1,8.7572116E-1,3.8119915E-1,-7.849653E-3,-6.066316E-1,-3.6725992E-1,1.7910445E-1,7.3836094E-1,9.6941876E-1,2.069861E-1,6.00987E-1,-6.751413E-1,-5.2547485E-1,-4.736575E-1,-2.4436967E-1,9.593955E-3,6.725178E-1,2.5704214E-1,8.176025E-1,9.722961E-3,1.790571E-5,8.8959664E-2,6.84049E-1,7.5596374E-1,2.9758725E-1,-6.7906324E-3,-3.5755205E-4,-5.3811097E-3,-8.1100484E-4,-4.915935E-3,-9.6559E-4,-6.389651E-4,-3.7457778E-3,-1.2628777E-3,3.913709E-3,8.098704E-3,2.834197E-4,1.2735426E-3,5.1000556E-3,9.269916E-3,6.999433E-3,1.8105682E-4,4.257201E-3,4.803527E-3,8.274267E-3,8.13359E-3,5.083825E-3,1.888248E-3,4.747146E-3],"categories":[],"categories_nodes":[],"categories_segments":[],"categories_sizes":[],"default_left":[0,0,0,0,0,0,0,0,0,0,0,0,0,0,0,0,0,0,0,0,0,0,0,0,0,0,0,0,0,0,0,0,0,0,0,0,0,0,0,0,0,0,0,0,0,0,0,0,0,0,0,0,0],"id":29,"left_children":[1,3,5,7,9,11,13,-1,15,17,19,21,23,25,27,29,31,33,35,37,39,41,43,-1,-1,45,47,49,51,-1,-1,-1,-1,-1,-1,-1,-1,-1,-1,-1,-1,-1,-1,-1,-1,-1,-1,-1,-1,-1,-1,-1,-1],"loss_changes":[2.5285159E3,1.03156494E2,1.814386E2,1.4223022E1,2.1938057E1,1.769226E1,5.167781E1,0E0,2.6097107E0,9.4435425E0,6.841544E0,2.5425598E1,2.605713E0,4.303038E1,2.7075806E1,8.6283875E-1,1.932251E0,2.463417E0,8.507641E0,3.7493613E0,1.6594753E0,3.088974E0,4.2640076E0,0E0,0E0,1.4806229E1,2.3211823E0,3.4132843E0,3.5695953E0,0E0,0E0,0E0,0E0,0E0,0E0,0E0,0E0,0E0,0E0,0E0,0E0,0E0,0E0,0E0,0E0,0E0,0E0,0E0,0E0,0E0,0E0,0E0,0E0],"parents":[2147483647,0,0,1,1,2,2,3,3,4,4,5,5,6,6,8,8,9,9,10,10,11,11,12,12,13,13,14,14,15,15,16,16,17,17,18,18,19,19,20,20,21,21,22,22,25,25,26,26,27,27,28,28],"right_children":[2,4,6,8,10,12,14,-1,16,18,20,22,24,26,28,30,32,34,36,38,40,42,44,-1,-1,46,48,50,52,-1,-1,-1,-1,-1,-1,-1,-1,-1,-1,-1,-1,-1,-1,-1,-1,-1,-1,-1,-1,-1,-1,-1,-1],"split_conditions":[2E1,1.56E1,3.4943602E0,2.5032E1,6.5E0,3E-1,2.8274622E1,-7.849653E-3,1.28E1,1.78E1,1.5E1,2.22E1,2.9368513E1,2.1E0,5.1315656E0,8.4986866E-1,1.3E1,6.5E0,4.2474256E0,2.8540628E1,3.5496E1,1.3E0,2.5047348E0,9.722961E-3,1.790571E-5,3E-1,4E-1,4.0111E1,2.5E1,-6.7906324E-3,-3.5755205E-4,-5.3811097E-3,-8.1100484E-4,-4.915935E-3,-9.6559E-4,-6.389651E-4,-3.7457778E-3,-1.2628777E-3,3.913709E-3,8.098704E-3,2.834197E-4,1.2735426E-3,5.1000556E-3,9.269916E-3,6.999433E-3,1.8105682E-4,4.257201E-3,4.803527E-3,8.274267E-3,8.13359E-3,5.083825E-3,1.888248E-3,4.747146E-3],"split_indices":[2,2,5,1,0,0,4,0,2,2,6,2,4,6,5,3,6,7,5,4,1,7,5,0,0,0,0,1,2,0,0,0,0,0,0,0,0,0,0,0,0,0,0,0,0,0,0,0,0,0,0,0,0],